8633 50
of -0.145871 -0.119771 0.113222 0.060504 -0.156050 0.103097 0.404491 0.253993 -0.475750 0.319285 0.183555 -0.133331 0.010390 -0.000838 -0.226876 0.055325 -0.183837 -0.037021 0.162455 0.365140 -0.087973 0.199706 -0.124849 -0.066902 -0.171288 0.151373 0.304105 0.223312 0.281157 0.053839 0.240789 0.450326 -0.303744 0.236969 -0.123266 0.078770 -0.022990 -0.065611 0.668934 -0.092329 0.088348 -0.055763 0.223993 0.345668 0.258144 -0.238106 0.043643 -0.205265 -0.260578 0.021885
the -0.189764 -0.193141 0.028046 0.069483 -0.159095 0.104101 0.406908 0.253460 -0.493307 0.256066 0.228496 -0.091077 -0.033192 -0.055739 -0.175557 0.000255 -0.091577 -0.180456 0.284132 0.345990 -0.198301 0.116465 -0.081518 0.059516 -0.172826 0.323404 0.250297 0.271686 0.186485 0.045678 0.220586 0.469023 -0.280943 0.355546 -0.120440 -0.046021 -0.011787 -0.283775 0.695508 -0.033342 0.108350 -0.106706 0.179418 0.225564 0.049963 -0.223096 -0.034699 -0.040725 -0.177116 -0.120018
and -0.147576 -0.101747 -0.060142 -0.097436 -0.192799 0.171890 0.088183 0.187634 -0.401612 0.283368 -0.077112 -0.062855 -0.025590 -0.054226 -0.244079 -0.102172 -0.242595 0.021193 -0.016086 0.221727 0.136787 -0.121922 -0.257475 -0.009626 -0.328819 0.388818 0.253121 0.270883 0.234151 0.138151 0.206000 0.413661 -0.396127 -0.042298 -0.089642 -0.010589 0.044875 -0.119010 0.312348 -0.169097 0.277042 -0.037470 0.342120 0.418816 0.053399 -0.169604 0.200069 -0.279773 -0.291901 -0.135325
in -0.122584 0.187101 0.269320 0.269255 0.082703 0.299125 0.586351 0.380247 -0.560137 0.523096 -0.238468 -0.025419 -0.030653 0.060168 -0.203569 -0.130287 0.040054 -0.277932 -0.088835 0.153222 0.227641 0.194863 -0.140804 0.257789 -0.229653 0.600191 0.300832 0.275277 0.043000 -0.133428 -0.106966 0.503330 -0.280948 0.141064 -0.183071 -0.158057 -0.053885 0.057978 0.473047 0.102468 0.108382 0.012470 0.290678 0.128430 0.316137 0.012723 0.092074 -0.095844 -0.077845 -0.529247
with -0.203511 0.039846 0.110021 0.247219 0.007130 0.087748 0.373536 0.121423 -0.567559 0.379935 -0.118664 0.043260 0.308578 0.270628 -0.464786 -0.124701 -0.285247 -0.124889 -0.037037 0.127880 -0.129887 0.076079 -0.023111 0.013573 -0.340865 0.071089 0.404632 0.600964 0.232864 0.019010 0.103727 0.158467 -0.418413 -0.310553 -0.025027 -0.233743 0.279566 0.301621 0.232332 0.165260 0.102720 0.142533 0.483756 0.711669 -0.041335 0.045132 -0.204118 -0.045240 -0.092844 -0.035424
a 0.002269 0.093405 0.100183 0.347368 -0.303806 0.207208 -0.034384 0.407302 -0.789323 0.149622 -0.114844 0.186166 -0.339101 0.071768 -0.294453 0.091675 -0.156018 -0.460978 0.104878 -0.026817 0.136619 -0.114808 -0.007399 -0.017952 -0.530987 0.364599 0.067826 -0.012726 0.230969 0.070352 0.119357 0.600837 -0.328305 -0.068098 0.014615 -0.022915 0.250828 0.186845 0.417576 0.047790 0.204658 -0.187582 0.042882 0.421202 0.647445 -0.037985 0.287410 0.203107 -0.112669 -0.047651
to -0.157024 -0.213495 0.201243 0.593757 -0.497172 -0.089411 0.360877 0.266325 -0.352912 0.121750 0.174553 -0.108946 0.055222 0.111971 -0.187861 0.081244 0.017090 -0.145402 0.166351 -0.017473 -0.152579 0.265264 0.213700 0.375416 -0.656097 0.649278 0.266643 0.180326 0.094028 -0.232630 -0.008361 0.303084 -0.614558 0.504700 -0.198551 -0.189953 0.137909 -0.022640 0.833001 0.190295 0.441799 -0.104720 0.140161 0.287864 -0.037392 0.377629 0.177816 -0.045371 -0.315019 0.248049
be -0.223015 -0.339671 0.406845 0.603201 0.209115 -0.218243 0.337328 0.173704 -0.897038 0.343885 -0.116150 -0.211717 0.483096 0.396355 -0.159451 0.330996 -0.643980 -0.138182 -0.146323 0.351051 -0.503448 -0.153278 0.326843 0.403886 0.020117 0.208768 0.153541 0.421100 -0.326565 -0.109855 0.289839 0.191989 -0.432310 0.000598 0.139678 -0.128666 0.267530 -0.424472 0.448255 0.573785 0.426258 -0.578293 -0.022966 0.919540 -0.071827 0.001567 0.039567 -0.086033 0.032104 0.007221
or 0.118840 0.176408 0.255514 -0.103852 -0.712575 0.335149 0.308962 0.173703 -0.415188 0.703859 0.049693 0.016051 0.491324 -0.098660 -0.447456 -0.288263 -0.586376 -0.176759 0.262434 0.179343 -0.139056 -0.259668 0.022576 -0.239081 -0.495924 0.264567 0.271584 0.095498 0.282175 0.395053 0.570952 0.385649 -0.452802 0.215843 0.055369 -0.166625 0.244362 0.264877 0.070509 -0.047559 -0.192758 -0.287397 0.215876 0.613553 -0.163966 0.128556 -0.259182 -0.121201 -0.296128 -0.289793
is -0.257008 0.221601 0.622409 0.954634 0.150944 0.097181 0.293852 0.042607 -0.733446 -0.311833 0.261932 0.033327 0.206035 -0.235180 -0.502468 0.349268 -0.057050 -0.172546 0.299218 0.085932 -0.487872 -0.233731 0.152962 0.762974 -0.037407 0.155300 0.250176 0.787009 0.020654 0.017208 0.363050 0.588864 -0.238810 -0.054505 -0.341556 -0.321791 0.326640 -0.201292 0.475092 0.273553 0.037480 -0.492625 -0.065665 0.616711 0.427651 -0.474943 -0.160542 -0.424155 0.278247 0.002291
may -0.452018 0.391877 0.558289 0.382708 0.111870 0.062949 0.274119 0.717007 -0.477976 0.482834 0.522663 -0.296992 0.405718 0.546170 0.084808 0.420956 -0.173512 -0.493751 -0.004625 0.346657 -0.517613 -0.683602 -0.113272 -0.274340 -0.095780 -0.026905 0.280555 0.644218 -0.107657 -0.092923 0.312564 0.204288 0.023422 0.442834 -0.432449 0.139941 0.297628 -0.479550 0.652835 0.072996 -0.053699 -0.662246 -0.169989 1.053436 -0.037523 0.130962 0.067139 -0.489103 0.002659 -0.013316
drug 0.220286 -0.187617 0.126014 0.098530 -0.163965 -0.260908 0.535271 0.222571 -0.833683 0.298829 0.200815 0.340743 0.079492 0.345688 -0.304810 -0.163694 0.002073 -0.164435 0.473818 0.584385 -0.324397 -0.489276 0.069843 0.149646 -0.665487 0.304039 0.076211 0.555145 0.064812 -0.008381 0.385839 -0.052640 -0.294232 0.077491 -0.165141 -0.334054 0.245777 -0.548298 0.539133 0.408298 -0.073632 0.045440 0.078094 0.296693 0.320948 0.027301 -0.445298 -0.034780 0.183080 -0.194003
effect -0.219734 -0.219521 0.466414 -0.581676 -0.043573 0.135288 0.401500 0.152270 -0.854578 0.267921 0.135630 -0.684463 0.171125 0.060090 -0.630402 0.303909 0.047554 -0.270281 0.436781 0.051691 -0.184770 -0.073155 -0.561531 0.345139 -0.025156 -0.080869 0.212435 0.156032 0.004785 0.087435 0.173793 0.405267 -0.218347 0.317567 0.042500 -0.004813 -0.092927 -0.170599 1.178820 -0.001081 0.217250 0.375753 0.254778 0.313933 -0.137898 -0.085796 -0.322098 -0.064476 -0.509016 -0.089703
patient -0.447670 0.159163 0.290189 0.536709 0.062339 0.083681 0.764204 0.225624 -0.825916 0.304908 -0.165633 0.300748 0.842508 0.298404 -0.388253 -0.230357 -0.215331 -0.393848 -0.191791 -0.106591 0.140121 -0.347652 -0.209112 0.357350 0.105061 0.630045 0.004578 0.224599 0.044635 -0.559858 -0.128508 0.452802 -0.384014 -0.181508 0.145660 0.127834 -0.399228 0.515521 0.101438 0.746329 0.431909 0.085294 0.226971 0.332572 0.138206 0.273417 -0.059194 0.155867 -0.164432 0.215122
not -0.288320 0.063674 0.436854 0.377239 0.008478 -0.188743 -0.140002 0.287538 -0.581496 0.337477 0.190766 -0.159009 0.222814 -0.019684 -0.435879 0.014228 0.065403 0.130782 0.048941 0.444455 -0.020777 0.161059 0.506262 0.179923 -0.244263 0.355122 0.662660 0.143378 -0.050574 0.495703 0.121754 0.277337 -0.677825 -0.301591 -0.102390 -0.888194 -0.003969 -0.332077 0.522563 0.275387 0.800421 -0.492860 0.567032 0.279257 -0.074464 -0.244381 -0.557019 0.261369 -0.375976 -0.156264
by 0.019027 -0.371516 -0.124090 -0.067108 -0.212785 -0.463724 0.568936 -0.227742 -0.572956 0.662708 -0.072616 -0.324411 0.094474 -0.126745 0.084800 -0.144804 -0.135528 -0.230708 0.026367 0.433701 -0.373372 0.317691 -0.304915 0.570875 -0.828232 0.225804 0.254212 0.223404 -0.007181 0.274321 0.265221 0.223745 -0.742951 0.345602 -0.719081 0.250810 0.138613 0.206382 -0.003589 0.212499 0.383650 -0.464653 0.305059 0.388920 0.502281 -0.697364 -0.077147 -0.381746 -0.795534 -0.078809
should 0.055621 -0.366505 0.395646 0.652632 0.379220 -0.322242 0.116379 0.003256 -0.850748 0.281966 -0.527014 0.022871 1.021226 0.665364 -0.229265 0.514738 -0.862364 -0.037976 0.002617 0.651278 -0.506649 -0.305823 0.419760 0.464514 0.495849 0.362344 0.147964 0.599870 -0.406307 -0.031602 0.431292 0.240660 -0.306616 -0.127723 0.455097 0.032568 0.370795 -0.398822 0.219326 0.934220 0.735077 -0.624636 0.328892 1.238041 0.063683 -0.131660 0.287011 -0.267034 0.124500 -0.072279
for 0.404101 -0.424949 -0.344573 0.426418 0.107155 -0.191483 -0.110972 0.074161 -0.395979 0.360994 0.578991 0.035592 0.090861 -0.204228 -0.276999 0.216448 -0.728598 -0.042687 -0.190791 0.651173 -0.037174 0.181115 0.192481 0.119479 -0.269073 0.635796 -0.220831 0.063595 0.327874 -0.119997 0.646413 0.623782 -0.500710 -0.040664 -0.443894 -0.502734 0.121308 0.307584 0.683540 -0.015630 0.361052 0.011617 0.624202 0.672652 0.360135 0.153867 0.087520 0.177180 -0.104271 0.008493
that -0.599022 -0.067801 0.124847 0.011796 0.094492 0.155715 0.357000 0.708189 -0.820982 0.372235 0.403125 0.240574 0.219188 0.026497 -0.443461 0.274171 0.386800 -0.085353 0.293911 0.135305 -0.218472 -0.200543 0.431913 0.335234 -0.312972 0.294071 0.396989 0.288276 -0.023390 0.191433 0.341347 0.349959 -0.587058 -0.186025 -0.544015 -0.446460 -0.099699 0.116696 0.561784 -0.553678 0.440779 -0.167783 -0.055766 0.361844 0.472903 0.034731 -0.349679 -0.378018 0.102352 0.007603
been -0.140855 1.286569 0.525581 0.131447 -0.146272 0.097856 -0.037369 0.376398 -0.289459 -0.349925 -0.523995 -0.467097 0.355601 0.453887 -1.221661 0.141660 0.027266 -0.164958 -0.216398 0.961427 0.349090 -0.414544 0.303605 -0.294062 -0.343632 0.298469 0.450808 1.088310 -0.433648 -0.424417 0.236473 -0.282790 -0.956220 -0.261840 -0.375010 -0.145728 0.348029 -0.622903 1.034741 0.366753 0.476416 0.369738 0.413595 0.535520 0.503664 -0.074889 -0.129564 0.035022 0.112995 -0.065867
on -0.051000 0.033955 -0.091007 -0.496480 -0.041536 0.204875 0.239407 0.108668 -0.596171 0.194588 -0.004859 -0.636539 0.006277 -0.100010 -0.530946 0.299666 -0.217914 -0.215738 0.664585 0.283862 0.187487 -0.002753 -0.310577 0.270458 -0.065842 0.456363 0.298833 -0.121466 0.294116 0.144947 0.578907 0.524938 -0.223477 0.547858 0.362073 -0.252876 -0.397716 -0.110814 1.340228 0.422720 0.197213 0.196848 0.512878 -0.008962 0.430527 -0.354817 -0.598664 -0.220225 -0.101415 -0.094442
have -0.128779 0.756700 0.566702 -0.028834 -0.032381 0.114782 0.080353 0.710374 -0.562955 -0.217854 -0.478546 -0.301986 0.194021 0.263693 -0.866468 0.123082 0.037648 0.035983 -0.267632 0.555131 0.288336 -0.249515 0.013412 -0.357910 -0.346190 0.233755 0.402211 0.581595 -0.157872 -0.410217 0.412982 -0.119941 -0.590662 -0.573306 -0.545548 -0.327002 0.083635 -0.333215 1.076696 0.419461 0.434400 0.359547 0.159757 0.373500 0.403394 0.130817 -0.419528 0.022508 0.114257 -0.218480
interaction 0.193589 0.184534 0.194357 0.151271 0.480936 0.177927 0.268674 0.417011 -0.565092 0.260431 0.099378 0.211645 -0.438789 -0.169218 -0.758960 0.003574 -0.054873 0.169780 0.770409 0.460516 0.208902 -0.424654 -0.106553 0.934352 -0.247466 0.343422 0.092492 0.629596 0.286541 0.460318 0.330823 -0.294899 0.079456 -0.609586 -0.446564 -0.390470 0.146244 -0.506600 0.871239 0.325567 0.436715 0.316070 0.183480 0.739432 0.236734 0.617694 -0.398475 0.699035 -0.249374 0.048518
other -0.142393 -0.258191 0.265157 -0.249090 -0.224752 -0.117088 0.078583 0.152612 -0.653262 0.470117 0.164480 0.255504 0.222566 -0.129822 -0.721510 0.135629 -0.415065 -0.399031 0.882499 0.509564 -0.475308 -0.456475 -0.404083 -0.231190 -0.379102 0.382096 0.360017 0.751695 0.189726 -0.293594 0.611224 -0.279874 -0.322456 -0.376744 -0.041274 -0.569623 -0.028850 -0.469885 0.239756 0.469457 -0.020823 -0.179546 0.084053 0.446491 -0.109243 -0.112499 -0.198810 0.398076 0.158522 -0.207651
when -0.164916 -0.377728 0.068384 0.615924 0.121548 -0.070723 0.540635 0.055309 -0.760197 0.595689 -0.329784 -0.481702 0.242151 0.193288 -0.052836 -0.037598 -0.487815 -0.493739 0.179558 -0.076421 -0.466525 -0.265827 -0.350186 0.637255 -0.175821 -0.363833 0.283703 0.345343 -0.143593 0.043569 0.208691 0.542588 -0.943018 -0.174413 -0.003961 -0.417445 -0.006504 0.706615 0.477695 0.309207 0.770321 0.594252 0.261049 0.871509 0.054993 0.022921 -0.328253 0.032814 0.309464 -0.024958
are -0.526774 0.357064 0.177697 0.675277 0.263684 0.309749 -0.130950 0.284151 -0.808788 -0.480383 -0.075802 0.352989 0.611690 0.322708 -0.036254 -0.081638 -0.021563 -0.580768 0.316762 0.637012 -0.650877 -0.547282 -0.369627 0.669681 -0.778580 0.313420 0.064452 0.804589 -0.005032 -0.430725 0.765459 0.628656 -0.026439 -0.129435 -0.231888 -0.400807 -0.264718 -0.639570 0.411784 0.089344 0.332584 -0.244012 -0.021544 0.510207 0.359955 -0.231633 -0.263711 -0.179153 0.452797 -0.058573
wa 0.280743 1.042007 0.358844 0.401555 0.264796 -0.768877 0.347365 0.171821 -0.352589 -0.310448 -0.919192 -0.437826 -0.114862 -0.159463 -0.044534 0.278816 0.200265 -0.928974 0.111794 0.689355 -0.351072 0.332913 0.234633 0.442847 0.257352 -0.289607 0.033250 0.777616 0.836631 -0.071800 0.557291 0.807788 -0.653499 0.410626 -0.087425 -0.294381 0.156012 0.025116 0.426472 0.291159 0.231380 0.266070 0.307027 0.542055 0.476539 0.146108 0.076362 -0.375479 -0.221072 -0.218069
study 0.152141 0.550645 -0.150442 -0.028548 0.724065 -0.044591 0.973199 0.240363 -0.604163 0.724784 -0.457829 0.092389 -0.147646 0.602892 -0.962854 0.299175 0.494920 -0.439048 0.855351 0.438694 0.396946 0.463857 0.464161 0.171296 0.413077 0.248772 0.423164 0.258617 0.527876 0.269229 0.262454 -0.024711 -0.133813 -0.729383 -0.338541 -0.377615 0.042356 0.330230 0.747971 0.698823 0.093071 0.089147 0.400601 0.047782 0.780248 0.270019 -0.433021 0.075980 -0.393857 0.523594
increase -0.166386 0.175190 0.734207 0.606592 -0.022831 0.331996 -0.082113 0.142429 0.126432 1.278994 0.285932 -0.005898 -0.022016 0.395674 -0.098683 0.595139 0.223184 -0.292030 0.308649 0.093988 -0.283253 0.246062 -1.006566 -0.131793 -0.230911 0.808914 0.040015 0.062138 -0.095420 0.372553 0.062639 0.051235 -0.290993 0.547329 -0.300219 0.538139 0.237779 0.264816 0.614795 0.323370 0.575190 0.417796 -0.228049 0.687047 0.574077 -0.650464 0.087672 -0.020807 -0.138598 -0.850284
concentration -0.162922 -0.082799 -0.028100 1.041236 -0.807472 -0.008533 0.384755 0.403661 -0.015405 1.428608 0.323656 -0.521735 -0.391939 0.620460 -0.204396 -0.038731 0.238362 -0.450824 0.174112 0.658882 0.049008 -0.023371 -0.647251 0.319945 0.475172 0.475996 -0.260298 0.220557 0.076453 0.045075 0.294819 0.375509 -0.244980 -0.478989 -0.242456 -0.127328 0.000485 -0.321085 0.531283 0.284427 0.765657 0.311772 -0.766118 0.265046 -0.126715 -0.291764 -0.356742 -0.419520 -0.377184 -0.099729
plasma 0.111741 -0.203798 0.020713 1.018799 -0.272097 -0.240889 0.003249 0.719264 -0.135038 1.194636 0.499637 -0.717669 -0.457998 0.122179 -0.373649 0.059158 0.335387 -0.573788 0.300698 0.622003 -0.081193 -0.019082 -0.883854 0.137213 0.364749 0.678843 -0.026258 0.087910 -0.058564 -0.077191 0.262342 -0.033763 -0.662138 -0.919324 -0.070661 -0.026975 0.110576 0.044845 0.706055 0.357127 0.783943 0.448485 -0.582451 0.415672 -0.031353 -0.455991 -0.735888 -0.464886 0.046369 -0.346035
were 0.386862 1.476222 0.034550 0.270527 -0.004332 -0.631855 0.456891 0.010227 -0.097993 -0.309669 -1.317295 -0.505837 0.389561 0.075784 0.199859 -0.101545 0.115540 -0.830546 -0.150269 1.171398 -0.463031 -0.007571 -0.283687 0.262856 0.209694 0.133062 0.179523 1.037149 0.417815 -0.279777 0.782547 0.591991 -0.058272 -0.016986 -0.019901 -0.554412 -0.436290 -0.024968 0.453894 0.361740 0.652250 0.176480 0.611187 0.152889 0.630465 -0.017017 0.008372 -0.434674 -0.714895 -0.640491
level -0.122064 -0.080161 0.052939 0.768956 -0.471769 0.165709 0.041473 0.637292 -0.219132 1.005911 0.465412 -1.165212 0.030140 0.112573 -0.141988 -0.157858 0.147998 -0.236844 -0.118439 0.226829 0.037098 0.104716 -0.366592 0.393581 0.219445 0.560290 -0.561897 0.284076 -0.343073 0.035991 0.012226 0.144277 -0.404122 -0.445040 -0.236912 -0.044361 0.070005 -0.391322 0.460018 0.399763 0.949552 0.530596 -0.316756 0.515652 0.360897 -0.095071 -0.331612 -0.629585 -0.352732 -0.107043
no 0.132663 0.406243 0.206685 -0.040008 -0.388284 0.473806 -0.012198 0.583636 -0.656105 0.401849 -0.370858 -0.296792 -0.441322 -0.069778 -0.431207 0.388723 0.251527 0.436037 0.946267 0.481017 0.156780 -0.380090 -0.406743 0.808475 0.221991 0.468376 0.673799 0.161195 0.167945 0.000528 0.658674 0.091036 -0.435232 0.138593 0.286636 -1.013036 -0.656177 0.247097 1.102843 0.218890 -0.057577 0.351050 0.255387 0.736063 0.503778 -0.208177 -0.385446 0.518765 -0.713444 0.172210
ha -0.131741 1.426915 0.501119 0.289357 -0.221871 0.363396 -0.390551 -0.187066 -0.340995 -0.216117 -0.334885 -0.373083 0.024123 0.421571 -1.062638 0.427786 0.032473 -0.364573 -0.014980 1.000337 0.166129 -0.260030 0.281445 -0.408525 0.073015 0.524637 0.316210 1.160955 -0.489776 -0.131441 0.137708 -0.151896 -0.807875 0.232151 -0.216799 -0.131653 0.572567 -0.521006 1.121747 0.300174 0.497729 0.301927 0.352721 0.460226 0.408614 -0.125410 0.261847 -0.064293 0.107995 -0.038379
administration -1.257656 0.209967 0.089701 0.174041 -0.663170 -0.056087 0.245289 -0.069738 -0.738772 0.589359 0.470447 0.255523 -0.240121 0.064743 -0.309873 0.062868 -0.224302 0.024709 0.543624 1.305711 0.337665 -0.021886 -0.096792 0.153240 0.740395 -0.455226 -0.223362 0.691940 0.279786 -0.104366 0.030142 0.017584 -0.210556 -0.269803 -0.258851 0.453697 -0.228036 0.431829 0.652105 0.365211 1.123411 -0.073892 0.264074 0.705834 0.124172 0.547116 -0.134166 0.283067 -0.297241 0.271127
dose 0.533238 0.156008 0.674671 0.740943 -0.385391 0.213081 0.510526 0.133819 -1.306062 0.671562 0.004647 -0.542232 0.174975 -0.279995 -0.455635 -0.146998 -0.130851 -0.205130 0.454764 0.344551 -0.470516 0.291528 -0.249783 0.240107 0.108927 -0.032424 -0.700407 -0.342788 0.047865 0.325937 0.225516 0.751110 -0.420525 -0.087060 -0.042237 0.342674 -0.112987 0.493057 0.393771 0.333625 0.893360 -0.212949 0.199322 0.328210 0.296490 -0.046623 0.132122 0.372640 0.490675 0.587169
mg 0.448002 1.049689 0.074123 0.964878 -0.548406 -0.976022 0.193404 -0.059285 -1.013241 1.206228 0.104584 -0.007260 -0.215919 0.161131 -1.053776 0.378297 -0.069649 -0.148348 0.724221 0.508883 0.051583 0.709216 -0.565915 -0.105021 0.141397 -0.279607 0.104924 0.098617 0.189828 0.695325 -0.393771 0.928740 -0.351870 -0.261841 0.377294 0.245127 -0.501501 0.043147 -0.222760 0.466633 0.669758 -0.756373 0.867785 0.542139 0.105296 1.080660 -0.143673 -0.007864 0.230795 0.690067
these -0.577065 -0.263189 0.048784 -0.043818 0.244877 0.140876 0.590756 0.548683 -0.711174 0.902871 0.153489 0.102676 0.264123 0.616776 -0.257155 -0.292013 -0.099623 -0.368637 0.604405 0.334516 -0.693510 -0.095637 0.350552 0.298599 -0.283504 0.494315 0.064732 0.859390 -0.240531 0.253603 0.512242 0.215368 -0.042273 -0.397806 0.114392 -0.531352 -0.802192 -0.475990 0.729206 -0.203437 0.432024 -0.141507 -0.442926 0.150926 0.220161 -0.259780 0.197638 0.227122 0.070926 -0.278143
increased -0.633752 0.096327 0.403197 0.734636 0.402240 -0.371746 0.109422 -0.098498 0.312417 0.759895 0.295321 -0.726463 -0.273836 -0.111581 0.040998 -0.109262 -0.423922 0.311415 0.569907 0.256564 -0.035245 0.683526 -0.536139 -0.170848 -0.252811 0.550176 0.615732 0.183527 -0.367871 0.722353 0.639581 0.529755 -0.367634 0.427962 -0.688540 0.075561 -0.618977 0.134602 0.474292 0.758391 0.568063 1.067672 -0.526459 0.772470 0.335034 -0.507810 0.351375 -0.356687 -0.258216 -0.187624
concomitant -1.600884 -0.013162 0.581306 0.101207 -0.351673 0.045925 0.254814 0.449173 -0.585556 0.384849 0.273136 0.447086 0.239798 -0.164048 -0.208068 0.048451 -0.003012 0.281475 0.558885 1.416126 0.149449 -0.396121 -0.255487 -0.031121 0.417353 -0.071281 -0.144709 0.739925 0.249043 -0.130162 0.050922 0.153620 -0.315928 -0.602412 -0.163393 0.349649 -0.413062 0.491449 0.188554 0.423471 0.755161 0.298515 0.627794 0.656355 0.163338 -0.324692 0.158777 0.424400 -0.206236 0.267571
it -0.517623 -0.226166 0.212365 0.341030 -0.285248 0.108823 -0.331550 0.669988 -0.798093 0.339355 0.131189 -0.216117 0.249966 -0.345887 -0.993613 0.045478 0.412370 -0.062232 0.534170 -0.454936 -0.645305 -0.023510 0.750287 0.755788 -0.329412 0.152343 0.406607 0.634163 -0.367732 0.280910 0.328114 0.968717 -0.703893 0.089757 -0.394067 -0.160171 0.202494 -0.479093 0.417075 0.002769 0.103793 0.201532 -0.299468 0.401608 -0.005890 -0.513731 0.099038 0.152219 -0.181958 0.234763
an -0.719818 0.165257 0.309447 0.084169 0.357697 0.046419 -0.935868 0.468571 -0.823000 1.164477 -0.079256 -0.622421 -0.516054 0.193341 0.211875 -0.569456 0.062412 0.005956 0.852436 0.262888 0.035427 0.396789 -0.368580 0.258242 -0.375270 -0.091066 0.446293 0.347788 -0.643907 -0.393183 0.104088 0.226845 -0.591656 0.353637 -0.262333 -0.502338 -0.051562 0.340167 0.852571 0.707859 -0.362949 -0.358836 0.188049 0.793558 0.533104 0.101409 0.875809 0.279986 0.279925 0.103783
use -1.149812 0.157429 0.555923 -0.057632 -0.223369 0.307568 0.502318 0.218696 -0.809888 -0.011468 1.137400 0.352931 0.105357 0.189036 -0.498660 -0.088574 -0.009020 0.220773 0.211914 0.444349 0.209496 -0.605135 -0.480451 -0.264634 0.762906 -0.260373 -0.849869 1.196478 0.018936 0.099682 0.262376 0.320849 -0.303689 -0.378771 -0.461991 0.053659 0.114118 0.071657 0.432686 0.709755 0.875463 -0.010350 0.825583 0.477433 -0.272621 -0.067123 0.133168 0.498923 0.197086 -0.144176
this -0.054220 -0.160326 0.108953 -0.122535 0.406820 -0.332673 0.541473 0.496867 -0.521078 0.482051 0.474381 0.131419 -0.810714 0.165509 -0.256580 0.292672 0.144742 0.102009 0.241092 0.401712 -0.643779 -0.194061 0.606777 0.476151 -0.039046 0.939243 0.122479 0.484366 0.251837 -0.079899 -0.224417 -0.169533 -1.061933 0.089831 -0.158173 -1.025486 0.094161 -0.197146 0.881647 0.418003 0.082834 -0.796477 -0.005027 0.361072 -0.146411 -0.441237 0.686535 0.739028 0.393484 -0.255812
such 0.087286 0.406254 0.614938 0.578780 -0.547770 0.245406 0.050335 -0.061408 -0.540966 0.283352 0.388297 0.348165 -0.191532 0.968114 -0.726619 0.322497 -0.651912 -0.831550 0.771808 -0.068638 0.020715 -1.083322 -0.006492 -0.646068 -0.714096 0.763443 -0.079767 0.198580 0.209095 0.859377 0.511687 0.345583 0.447554 -0.204424 0.104913 -0.609845 0.401075 0.064392 -0.023268 0.666274 0.101487 -0.413705 -0.627940 0.892890 0.372184 -0.455158 -0.024611 0.272624 -0.541500 0.116285
administered -0.251629 0.372220 -0.127046 0.090033 -0.569978 0.295471 0.072832 -0.720903 -0.960728 0.552856 -0.281627 -0.388478 -0.020199 0.795075 -0.071719 -0.305428 -0.355727 -0.490343 0.616269 0.690362 -0.261883 -0.472134 0.051238 0.500162 0.109232 -0.199583 0.266237 0.225359 -0.174323 0.595741 0.189051 0.533266 -0.983368 -0.232750 -0.173817 -0.736060 0.271089 0.812455 -0.045071 0.825508 1.058944 0.298530 -0.239925 1.150854 -0.199932 0.024192 -0.342184 0.781493 0.319724 0.320297
at 0.019133 0.045923 -0.420933 1.115784 -0.656802 0.142573 0.573804 -0.267374 -0.025980 0.893569 -0.130376 -0.263622 0.602905 -0.147582 -0.717510 -0.207853 0.216374 0.051675 -0.427709 0.098865 -0.440991 -0.078053 0.310490 -0.052964 0.210816 -0.117976 0.172457 -0.657275 1.029915 -0.082477 0.400355 0.803528 0.055512 -0.012726 -0.046877 -0.037979 -0.094849 0.318109 1.052258 0.516648 0.359653 -0.370044 0.174404 0.532153 0.833116 -0.130010 -0.209515 -0.085179 -0.039836 -0.965424
oral -0.181172 0.914955 -0.638109 0.818765 0.383638 0.406847 0.354360 -0.140034 -0.835692 0.995245 -0.108208 0.386055 0.245567 -0.250475 -0.240834 -0.041686 -0.013467 -0.370101 0.721464 1.200381 -0.313808 -0.655017 0.101740 -0.522246 -0.736752 0.377422 0.093705 -0.077271 -0.724665 0.475462 -0.103326 0.044570 0.010467 0.470404 0.108977 0.166659 -0.640623 0.504895 0.790767 -0.285673 0.385478 -0.089494 0.362432 0.754364 -0.633150 -0.139346 0.393094 0.363292 -0.470358 0.332753
used -0.287700 0.327818 -0.039214 0.572891 0.328808 0.748442 0.135709 -0.810974 -0.868354 0.219920 -0.025444 -0.472497 0.180988 1.292791 -0.684319 0.226684 -0.898256 0.113360 0.131756 -0.104868 -0.365758 -0.823093 0.221766 0.213054 0.197940 0.276412 1.138496 0.390092 -0.494838 0.519410 0.391589 0.181382 -0.201677 0.143160 0.233674 -0.519128 -0.189993 0.267749 -0.398069 0.891670 1.115332 0.531723 0.848787 0.587405 -0.146410 -0.139754 -0.045448 -0.033019 -0.082094 -0.425785
therapy -0.691188 0.476727 0.562871 0.866700 -0.050099 -0.204253 0.202908 0.388841 -1.301048 0.776557 0.147545 -0.332334 0.212632 -0.498506 -0.680580 -0.719468 -0.824276 0.189530 0.362644 -0.182627 0.230820 -1.175000 0.149268 -0.167720 0.858327 0.219410 -0.569560 0.656520 0.572191 -0.493762 0.430861 -0.354169 -0.566538 0.692471 0.166358 0.108301 -0.211621 0.076909 0.004932 1.108155 0.300229 -0.023874 0.395523 0.195600 0.032269 0.198359 -0.532540 0.436347 -0.167678 0.442502
clinical 0.017369 0.441384 0.163960 -0.281652 0.527369 -0.003172 1.116551 0.611676 -0.901745 0.203727 -0.417615 0.180047 -0.575676 0.357758 -0.575585 -0.097134 0.245906 0.412965 -0.175753 0.250794 -0.432002 -0.041852 0.080115 0.234689 0.479929 0.693562 0.265446 0.886560 -0.071672 0.243948 0.366109 0.275093 -0.360876 -0.730313 0.330432 -0.006727 -0.110447 0.025170 0.563668 1.045090 0.229551 -0.282799 0.118631 0.110551 0.500778 -0.081599 -0.588630 0.374042 -0.529003 0.768135
from 0.469698 -0.601131 -0.309229 0.193921 -0.278845 -0.295638 1.448998 -0.013993 0.131587 -0.195620 -0.265152 0.121793 -0.428941 -0.205444 0.108078 -0.496140 -0.236057 -0.047056 0.751352 0.435821 -0.028460 -0.606437 0.553800 -0.276130 -0.106708 1.373234 0.623844 0.172877 -0.200188 -0.244753 -0.447643 0.813587 -0.873648 0.081488 -0.945734 0.261287 0.028553 0.910207 1.027225 0.380460 0.604087 -0.143078 0.312788 -0.036933 0.308304 0.008707 -0.110585 -0.723681 0.211493 -0.669135
reported -0.472056 1.189908 0.009740 0.064970 -0.483693 -0.267103 0.518255 0.059198 0.225515 -0.096787 -0.132335 -0.773643 0.473755 0.677296 -1.035819 -0.346882 -0.116101 -0.247178 0.002867 0.449232 0.532022 -1.334222 0.264766 -0.553947 -0.438637 0.520403 0.703153 1.234431 -0.621020 -0.185915 0.009223 -0.304341 -1.118752 -0.409666 -0.927395 0.879964 -0.042425 -0.650726 0.550486 0.052464 0.218789 0.608998 0.420162 0.587493 0.657707 0.011296 -0.515605 0.210913 0.075763 -0.004625
serum -0.226643 0.050371 -0.274297 1.200796 -0.691652 -0.174802 0.443361 1.100027 -0.349095 1.067543 0.630883 -0.879360 0.014179 -0.033650 -0.302249 -0.628996 -0.052597 -0.320804 0.295434 0.217442 0.236525 0.333924 -0.078677 0.001322 0.320448 0.828861 -0.670080 0.531259 -0.186178 0.129815 -0.257108 -0.533944 -0.236135 -0.873699 -0.560678 0.115231 0.458014 -0.728619 0.239622 0.403753 0.416458 0.897221 -0.041642 0.997399 0.054808 -0.210494 -0.484529 -0.248590 -0.110391 -0.463541
agent 0.126053 -0.121854 0.636969 0.148479 -0.286386 0.050287 -0.032780 -0.625537 -2.078381 0.964000 0.038409 0.193830 0.771208 0.824837 -0.528093 -0.695537 -0.031735 0.247922 0.476510 0.153095 -0.514753 -0.317286 0.355882 -0.241341 -0.640563 0.251863 -0.614099 0.596270 0.181743 -0.091823 0.157926 -0.074262 -0.099589 0.540423 0.162451 0.106201 -0.121955 -0.973444 0.754590 0.081084 0.250151 0.103180 0.163025 -0.081525 0.378564 0.173777 -0.165586 -0.794494 0.061855 -0.127581
day 0.347219 0.152437 -0.926609 0.667503 0.060898 -1.175938 -0.273378 0.335742 -0.638331 0.252640 0.190242 -0.357876 0.032842 -0.447403 -1.434338 -0.008303 -0.252230 -0.471854 0.015940 1.103467 -0.009671 0.064882 -0.408507 -0.242369 -0.009620 0.294503 -0.513761 -0.122923 0.521408 0.267313 -0.120809 0.889464 -0.685348 0.040271 0.378045 0.797681 -0.492766 0.131669 0.669716 0.266553 0.812970 -0.297684 0.754085 0.197531 0.674489 0.437595 -0.678916 0.199482 0.515772 0.225106
receiving -0.546569 0.279999 0.496093 0.258473 -0.078995 -0.229223 0.724583 -0.138129 -0.786336 0.734731 -0.096251 0.337202 0.834487 0.370298 -0.701609 0.001845 -0.422797 -0.394292 0.078382 -0.012613 0.213415 -0.621277 -0.144389 0.468026 0.077894 0.614534 -0.225915 0.367989 -0.311438 -0.631348 -0.193621 0.793327 -0.096378 -0.105060 0.346902 0.324329 -0.262994 1.002378 0.084372 0.970334 1.051221 0.305034 0.197402 0.487909 0.254360 0.051176 -0.387388 0.147182 -0.268920 0.333064
decrease -0.800472 0.303531 0.330047 0.306175 0.016884 -0.402631 -0.654480 0.276226 0.268660 1.942199 0.045637 0.002376 -0.232831 0.298954 -0.058857 1.237025 0.403857 -0.293015 0.533615 -0.596765 -0.295068 -0.002171 -0.628680 -0.023835 -0.029181 1.104710 -0.066506 0.096281 0.203531 0.811979 0.215044 -0.093522 -0.422798 0.610549 -0.471929 0.548960 0.243556 0.431174 0.667148 0.303131 0.943639 0.751025 0.166211 0.249855 0.585304 -0.392353 0.303982 -0.027920 -0.339565 -0.785712
given -0.026501 0.083068 -0.191753 0.185450 -0.340475 0.030311 0.338886 -0.376429 -1.119528 0.635014 0.043210 -0.799377 -0.355059 0.649340 0.028765 -0.563115 -0.226245 -0.527489 0.651746 0.355234 0.123087 -1.028089 0.597563 0.327241 0.355601 -0.370412 0.873516 0.154745 0.283250 0.223279 0.462506 0.553320 -1.056761 -0.087215 -0.205070 -0.075619 0.348252 0.824578 0.311328 0.829260 1.074455 0.508908 0.350310 0.842143 -0.295206 0.493901 0.155381 0.303298 1.182755 -0.209598
digoxin 0.017065 0.352440 -0.068478 0.511972 -0.572877 -0.276643 -0.228025 0.419334 -0.635602 0.751233 0.166220 0.191197 0.296095 -0.266547 0.328449 -0.622016 0.427297 -0.109450 0.417006 0.727680 -0.000562 -0.416692 0.096288 -0.204282 0.117767 0.604316 -0.239445 -0.308399 -0.243036 0.272666 -0.775932 0.419020 -0.427647 -0.646529 0.249320 -0.092508 -0.468186 -0.234569 0.888864 0.159371 -0.013395 0.885098 0.518238 1.181670 0.623149 -0.096603 -0.865352 -0.636005 -0.193942 -0.123880
result -0.086075 0.151606 -0.046001 0.424685 0.462777 0.446047 0.133476 0.523185 -1.099200 0.978109 -0.279458 -0.111480 -0.246188 0.160768 -0.353774 -0.264161 -0.168185 -0.333562 -0.026529 0.000523 -0.533519 -0.145786 -0.275519 -0.487788 0.198950 0.386183 0.739237 0.669973 -0.680365 0.136048 0.233309 0.408297 -0.108550 -0.566413 -1.040013 0.756319 0.308912 0.350321 0.954329 -0.010138 -0.227480 -0.449213 0.111965 -0.160070 0.450498 0.404132 -0.717435 0.249956 -0.076058 -0.479091
if -0.088440 -0.004423 0.418589 1.356465 0.038332 -0.014695 0.449790 -0.283342 -1.057230 -0.196584 0.209068 -0.385447 1.015153 0.201969 -0.428678 0.029563 -0.723299 -0.517871 0.393546 -0.272363 -0.780883 -0.559627 0.123727 0.047770 0.385774 0.075236 0.127501 0.112002 -0.142083 -0.160617 0.068875 -0.261731 -0.656686 -0.798595 0.086161 0.054714 0.233493 0.384176 1.012212 0.475209 0.468735 -0.310615 0.033074 1.046699 0.410305 -0.590641 -0.629601 0.228250 -0.285993 0.189994
concomitantly -0.460621 0.337516 0.248996 0.204961 0.111369 0.302001 0.092139 -0.224053 -0.667351 1.015586 0.211485 -0.060950 0.188095 0.422161 -0.315567 0.068037 -0.369148 -0.677819 0.493564 0.189902 -0.620026 -0.268937 -0.065916 0.121294 -0.310460 0.129306 0.498411 0.316302 -0.018590 0.400381 0.071187 0.037419 -0.626518 -0.589861 0.418701 -0.886459 -0.104969 -0.089877 -0.263954 0.977226 0.854407 0.680009 -0.011761 1.399057 0.083503 0.343910 -0.290992 0.347273 0.101268 0.572914
treatment -0.636482 0.005040 0.188279 0.842253 0.163915 0.450723 0.473505 0.334654 -1.405865 0.096198 0.874570 -0.249922 0.444112 -0.192159 -0.995385 -0.693490 -0.156922 0.222628 0.419110 0.055848 0.429835 0.069522 0.094636 0.062112 -0.032687 0.352296 -0.580029 0.829680 0.590749 0.622478 0.202727 -0.085999 -0.005874 0.757658 0.391803 0.799765 0.267905 0.157380 -0.464162 0.614085 0.590267 0.312266 0.670548 0.064281 0.460185 1.016358 0.188659 0.381995 -0.653674 -0.080694
there 0.390930 -0.150749 0.109477 0.603419 0.436492 0.925485 0.090514 0.274552 -1.046279 0.383633 -0.458415 -0.121635 0.291366 0.159582 -0.792647 0.225764 0.686792 0.369146 0.220857 -0.012973 0.168423 -0.527767 -0.205395 0.624700 -0.163331 0.455120 0.216708 0.656397 0.137066 0.422716 0.432868 0.165363 -1.015165 -0.286487 -0.393869 -0.109522 -0.862446 0.981038 0.957829 0.068664 -0.016657 -0.010977 -0.397710 0.332180 0.702739 0.076232 -0.078443 0.328865 -1.070461 0.546498
test -0.146846 0.332284 -0.959329 -0.195455 0.086563 0.441531 0.187300 1.352263 -0.563204 0.197553 -0.486376 -0.422123 0.348183 0.147170 -0.341019 0.485315 -0.374392 0.136639 -0.045185 0.045512 -0.017053 -0.661429 0.734166 1.708153 -1.043864 0.797049 -0.635497 0.832215 -0.659260 0.675168 0.397973 0.535443 -0.275389 -0.307471 -0.423996 0.653672 -0.166977 -0.297684 0.724408 0.802125 -0.345373 -0.313322 0.412784 0.671293 -0.234542 0.367169 -1.196899 0.932906 -0.810777 -0.839132
dos 0.443543 0.587675 0.564698 0.431864 -0.335314 0.277902 0.521827 -0.247886 -0.753111 1.305605 -0.019882 -0.757850 0.487656 0.157116 -0.141591 0.389924 -0.239145 0.619882 0.345127 0.853484 -0.492925 -0.004795 -0.086817 0.612685 -0.599210 -0.238769 -0.149390 -0.122483 0.406863 -0.645923 -0.559060 1.338539 0.022110 -0.542911 -0.532453 0.281895 0.346826 -0.393000 0.456165 0.278093 0.670382 0.152265 0.505503 0.277743 0.176657 -0.041413 -0.209197 0.916969 0.218789 0.529282
cyp3a4 -0.580492 -0.262790 0.612010 0.888566 0.189485 -1.110641 -0.159887 -0.139766 -0.965891 0.569020 0.007671 0.393774 -0.189897 -0.161423 -0.832842 -0.079969 0.868347 0.194543 0.386658 0.928803 0.003973 -0.633712 -0.247427 -0.113880 -0.961788 0.600196 -0.666061 -0.471878 -0.360530 0.367710 1.129464 0.346638 -0.293839 -0.646862 0.046090 0.438425 0.430328 0.656019 0.389960 0.326218 -0.010496 -0.086300 0.361723 0.409492 0.487671 -0.085401 -0.658846 -0.918683 0.254557 -0.793392
warfarin -0.077065 1.163281 -0.097058 0.212308 -0.319755 -0.580871 0.051490 0.099508 -0.950538 0.823579 -0.137876 -0.054867 0.175718 -1.513285 -0.230216 0.366077 0.845491 0.230070 0.267953 0.855222 -0.352781 -1.181680 -0.099031 -0.368845 0.051887 0.579488 0.161222 -0.038166 0.031923 0.216896 0.011154 0.013139 -0.191043 -0.576698 0.594794 -0.421352 -0.223408 0.286100 0.526232 1.029453 0.228990 0.396099 0.067449 0.787721 -0.027814 0.032435 -0.195619 -0.174370 -0.519478 0.183792
time 0.684951 0.270768 -0.611686 0.458361 -0.280839 -0.003575 0.729031 0.238238 -0.704764 0.400628 -0.141471 -0.219150 0.879086 -1.142971 -0.889023 0.071605 0.495434 0.657665 0.060219 0.582815 -0.340896 0.185006 -0.397077 0.221141 -0.230543 0.903140 -0.407715 0.003933 -0.691978 0.435781 -0.396904 0.855132 -0.791650 0.261811 0.039297 -0.131887 -0.022462 0.275818 0.353546 0.775811 1.028962 -0.167993 -0.730155 0.677342 -0.013780 0.060762 -0.649855 0.434171 0.265075 -0.916374
after -0.439695 -0.373986 -0.054396 0.519253 0.241887 0.214341 -0.243670 0.466342 -0.024596 0.871630 -0.540560 -0.523917 0.459914 -0.644889 -0.206607 0.521667 -0.432093 0.173996 0.510415 0.442073 -0.857034 -0.130218 -0.055371 0.386753 -0.026972 -0.214711 -0.764652 0.530902 0.798711 0.085492 0.116499 0.542683 -0.533588 0.439177 -0.027009 0.327128 -0.488176 1.052511 0.614033 0.117941 0.924975 -0.510602 0.496312 0.366509 0.953613 0.511492 -0.475827 -0.040385 -0.489582 0.033827
observed 0.233648 0.185189 0.282444 0.162721 -0.467798 -0.548703 -0.023221 -0.360394 -0.415930 0.744543 -1.114461 -0.331213 1.007594 0.814362 -0.582718 0.053592 -0.299681 0.358104 0.037533 0.489381 0.509661 -0.473363 0.696061 0.929914 -0.113431 0.870552 0.028856 0.498056 -0.002075 0.116864 0.866036 0.542704 -1.081439 0.218016 -0.155656 0.298549 -0.060210 -0.339981 0.047897 -0.221172 -0.153497 1.114267 0.314769 0.733208 0.249904 0.229302 -0.584289 0.517303 -0.414894 -0.202027
phenytoin 0.097339 0.637352 -0.461365 0.662542 -0.667746 -1.162761 -0.321110 0.946945 -0.771152 0.933525 0.362529 0.021418 0.023793 0.173574 -0.309275 0.172711 -0.213953 0.213329 0.530966 0.482036 -0.359220 -0.934208 -0.132477 0.321373 -0.564981 0.596965 0.155295 -0.059743 -0.220415 0.232682 0.036923 -0.213577 0.309716 -0.149827 0.285601 0.239603 0.413491 0.470420 0.917173 0.540529 0.105045 0.316877 -0.065813 0.332760 -0.099993 -0.570682 -0.098170 -0.346195 -0.883304 0.207300
significant -0.340399 0.166190 0.823181 -0.070181 -0.133313 0.478902 -0.741157 0.953743 -0.400964 0.685411 -0.377901 -0.309600 -0.404518 -0.171439 -0.360726 -0.019319 0.694508 0.321642 0.752512 0.213074 -0.025543 -0.299919 -0.684480 0.901521 0.019745 0.740587 0.900807 -0.176708 -0.314642 0.261857 0.483916 -0.011392 -0.444894 0.241319 0.524514 -0.104257 -0.535208 0.147081 0.693295 -0.010420 0.013125 0.406116 0.755029 1.056822 0.669489 0.488153 -0.174113 0.873669 -0.247943 -0.662572
therefore -0.244813 0.133779 0.070938 0.685648 -0.202836 -0.298096 0.016386 -0.358908 -0.827698 0.711315 0.488004 0.079328 0.612090 0.428120 -0.243245 0.721191 -0.451579 0.224296 0.079308 0.105241 -0.591174 -0.437408 0.087138 0.413356 0.612061 0.425699 0.015414 0.783227 -0.517253 0.087573 0.257327 0.301712 -0.115556 -0.396139 0.025161 -0.313274 0.204154 -0.392007 0.945700 0.358282 0.043891 -0.522751 0.339969 0.857934 -0.038154 -0.142121 -0.576674 -0.531030 0.133939 0.145945
metabolism -0.738889 0.079232 0.167541 0.425257 0.252224 -0.357732 0.138231 0.278642 -0.892962 0.907984 0.376880 -0.132436 -0.572427 -0.090969 -1.537849 -0.065771 0.466475 -0.487087 -0.089378 0.763322 -0.406615 -0.050151 -0.559316 0.811266 -0.297069 0.441351 -0.479100 -0.237838 -0.219682 0.202297 0.399538 -0.144557 0.189324 0.303363 -0.792925 0.634388 0.108695 -0.815491 0.730751 0.365092 0.239686 0.224651 0.126725 0.192420 -0.244405 0.064112 -0.759341 -0.657751 0.023520 0.581384
pharmacokinetics 0.046339 0.877487 0.516954 -0.537939 -0.236439 -0.286720 -0.332856 0.223800 0.010801 0.783428 0.274595 -0.549886 -0.049234 0.389841 -0.566217 -0.435358 0.639913 -0.169679 0.600545 1.554263 -0.519908 -0.150813 -0.206624 0.413200 1.152606 0.166160 0.392732 -0.448375 0.177849 0.683340 0.568076 0.483376 -0.600926 -0.242256 0.372867 -0.425926 -0.133287 0.216335 0.941154 0.283945 0.539205 -0.035984 0.629536 0.416103 -0.116376 -0.021184 -1.064580 -0.033504 -0.558440 0.540162
combination -0.147446 0.071877 1.040652 0.652076 0.519336 -0.118734 0.501575 0.087809 -0.509808 1.060767 0.029587 0.387458 0.039876 0.166235 -1.046117 -0.013481 0.136825 -0.240262 0.223007 0.364841 -0.597069 -0.686206 0.086203 0.048422 0.209823 0.219350 -0.313836 0.567095 -0.193004 0.227530 -0.028154 0.562472 -0.555139 0.360909 -0.237318 -0.854575 0.421074 0.908929 -0.319997 0.327363 0.444868 0.558576 1.293641 0.167704 -0.151106 -0.419843 0.605261 0.902017 0.207424 -0.328752
e.g. -0.870315 0.306324 0.694741 -0.342814 -0.234546 -0.770640 0.783794 -0.016622 -0.197251 0.688193 0.717580 0.160808 0.299271 0.560808 -0.699877 -0.068723 -0.798071 0.179750 0.187309 -0.029343 0.421205 -1.359800 -0.346782 -0.374512 -0.328043 -0.661169 0.460140 -0.626369 0.716589 0.788500 0.553029 0.054263 -0.311280 -0.790109 -0.275051 -0.082021 0.288421 -0.197027 0.488052 0.127424 0.362425 -0.166961 0.294282 1.473436 0.473154 0.320142 -0.141200 -1.860813 -0.331512 -0.520800
renal -0.073459 0.052504 0.425480 0.258790 0.358133 0.310476 -0.307548 0.246913 -0.928732 0.699400 1.371945 0.013497 -0.000126 0.242841 -0.126396 -0.279930 0.173381 -0.593197 -0.579144 0.646420 -0.144965 -0.399645 0.729432 1.133908 -0.046583 0.988634 0.275312 0.174299 0.541461 -0.429277 -0.180774 0.367156 -1.061895 -0.350100 0.148987 0.666455 -0.806738 -0.219259 0.305229 0.728969 -0.301511 0.185701 0.570882 0.266189 -0.237821 -0.139957 0.093732 -0.322585 -0.864576 -0.203253
which -0.807116 -0.124789 -0.141522 0.324814 0.338564 -0.113832 0.245670 0.238413 -0.721662 0.785854 -0.072048 0.381851 -0.467702 0.010292 -0.656912 -0.301339 0.009830 -0.041678 -0.365046 0.196646 -0.530532 -0.352968 0.445605 0.255330 -0.467361 0.790387 0.487945 0.096881 0.543982 -0.052302 -0.093584 0.180819 -0.014186 0.486838 -0.981928 -0.181317 -0.168890 0.102061 0.315651 -0.619874 0.202405 -0.177493 -0.444210 1.077443 0.330188 0.139766 -0.174186 -0.060567 0.040456 -0.287779
caution -0.582170 -0.333700 0.386393 0.622718 0.565464 0.009936 0.423843 -0.252019 -0.692892 0.755925 -0.065279 -0.087331 0.789546 0.941810 -0.830704 0.620811 -0.338714 0.700629 0.169985 0.081859 -0.475090 -0.775892 0.130075 0.908064 0.345705 0.156637 0.952615 0.907815 -0.352625 -0.024134 -0.106872 0.742437 0.106808 -0.890585 0.417535 -0.104696 0.204827 -0.629517 -0.011784 1.167297 -0.109119 -0.091616 0.109681 1.490836 0.429312 -0.164824 0.018663 -0.392541 0.403235 -0.372537
auc 0.494280 0.682772 0.342410 1.266784 -0.160719 -0.599506 -0.023201 -0.069797 0.026423 1.382583 0.145167 -0.491300 -1.068610 0.253212 -1.022162 -0.193296 1.285201 -0.226138 0.505385 0.360053 0.257144 0.589905 -0.904440 0.128580 0.178999 0.571795 -0.457658 0.632772 0.162546 0.952246 0.951859 0.938153 -0.261423 0.049337 0.669875 1.006622 -0.919080 -0.098676 -0.136466 0.519348 1.057560 -0.240218 -0.357967 0.844168 0.042919 -0.215411 -0.579413 -0.339979 -0.523368 0.029949
inhibitor -0.692380 -0.077127 0.889825 0.676101 0.220982 -0.389222 -0.067356 -0.793702 -0.512882 0.512281 0.164564 0.011423 -0.248427 0.179573 -1.081040 0.133687 0.539165 -0.081804 0.447405 0.638862 -0.163351 -0.014095 -0.162531 -0.075429 -0.923420 0.102231 -0.489402 -0.706787 -0.019191 -0.184514 0.860966 0.153162 -0.457859 -1.016584 0.081486 0.491401 0.579326 0.395582 0.484359 0.586226 -0.077371 0.120976 0.203427 0.505714 1.043504 0.262404 -0.690664 -1.093166 0.240500 -0.509196
decreased -1.095582 0.135128 0.142827 0.468589 0.975756 -0.861422 -0.084947 -0.292516 0.445486 1.714226 -0.108989 -0.446043 -0.251064 -0.102021 0.667643 0.429501 -0.394079 0.082842 0.598523 -0.083741 0.105103 0.449896 -0.070686 -0.112438 -0.466959 0.352775 0.560895 0.055187 -0.071135 0.595242 0.862756 0.937666 -0.929478 0.037421 0.080039 0.533217 -0.476329 -0.084355 0.509027 1.218401 0.607895 0.678470 -0.342803 0.441600 0.071251 -0.662634 0.260387 -0.543251 -0.780665 -0.490662
potential 0.360579 -0.477688 0.020059 0.369742 0.116322 -0.578928 -0.177238 -0.302540 -0.091131 -0.131145 0.483880 0.382665 0.212472 0.161375 -1.005330 -0.727048 0.380244 -0.035153 0.153724 0.391349 0.074040 -0.935842 -0.091516 0.748709 0.045219 0.455905 0.158456 0.601204 -0.349614 -0.683757 0.476407 0.618560 0.198848 -0.209459 -0.598994 0.085086 -0.276488 -0.408514 1.193873 0.370275 -0.033603 0.333029 0.675178 1.540999 -0.318248 0.108549 0.272036 0.132072 -0.065962 -0.045152
also -0.794368 -0.247766 0.156470 1.193945 0.159216 -0.131079 0.356054 -0.049279 -0.843866 0.757986 -0.125580 -0.076428 0.215500 0.427415 -0.371179 -0.950972 0.653504 -0.595649 0.023858 -0.085200 0.455236 -0.478316 -0.209908 -0.251940 -0.493426 0.366494 0.264722 0.402112 0.360034 0.294545 -0.224213 0.053706 -0.606018 0.239354 -0.817404 -0.409815 -0.012109 -0.548797 0.738479 0.030137 0.031760 0.015922 -0.003026 0.215394 -0.102129 0.169687 -0.332033 0.139913 -0.197047 -0.153399
blood 0.406976 -0.121845 -0.085764 -0.289941 -0.390743 0.467767 0.022539 0.359714 -1.076507 1.184081 0.048517 -1.152327 -0.489446 0.255099 -0.060839 0.246562 -0.074076 -0.141235 -0.454168 0.384571 -0.222462 -0.144628 0.363604 -0.045635 0.183196 0.796620 -1.005149 0.581750 -0.768033 -0.530425 0.535677 0.092484 -0.350421 -0.088018 -0.023112 -0.380513 -0.379873 0.465719 0.577891 0.075153 0.453738 0.052114 0.218016 1.108911 0.535827 0.271082 -0.411695 -0.743511 -0.183975 -0.639093
activity -0.817227 0.124417 -0.119170 -0.436848 -0.080038 -0.467233 0.308187 0.358289 -1.322368 0.837655 -0.006984 -0.175865 -0.017898 0.739272 -0.541170 0.558301 0.843006 -0.021342 -0.395092 0.299547 -1.008926 -0.503178 -0.690388 0.273480 0.206904 0.812305 0.296341 -0.289238 -0.452829 -0.546802 0.975955 0.328099 -0.834026 0.559346 0.247435 -0.448022 0.704199 0.137492 -0.182750 0.218973 0.209347 0.083076 0.143004 -0.214229 -0.785623 0.114544 0.668701 -0.081287 -0.330320 0.203691
coadministration -0.104049 -0.081479 0.296664 0.554614 0.215755 -0.096554 -0.014520 0.277324 -0.680430 0.581634 0.788733 -0.419378 -0.946894 0.301882 -0.421600 -0.356037 -0.018376 0.522909 0.803648 1.765598 0.258408 -0.069758 -0.321462 0.430686 0.307747 -0.324210 -0.043797 0.450783 -0.231648 0.844456 0.267873 0.513588 -0.240722 -1.213091 -0.153307 0.192927 0.304324 0.735282 0.312269 -0.382487 0.921164 0.033607 0.311190 0.766610 -0.304919 0.022913 -0.695381 0.136495 -0.175908 0.119482
can -0.499770 -0.401948 0.325865 0.214567 0.727150 -0.015630 0.220819 0.874009 -0.393780 0.233060 0.467396 -0.409435 0.008562 0.639665 -0.356797 0.254012 -0.039337 -0.616088 0.592345 0.633265 -0.412198 -0.821064 0.440399 0.336681 0.101841 0.324776 0.788212 0.687397 -0.636325 -0.374878 -0.459861 0.135524 -0.179242 1.004364 0.121644 -0.303980 -0.053348 -0.462883 -0.239173 -0.446305 0.299300 -0.851868 0.697477 1.622312 0.507633 0.475410 -0.231806 -0.524229 -0.018108 -0.003718
clearance 0.486681 0.576785 0.386145 0.731707 0.239887 -0.579652 0.249741 0.328370 -0.623987 1.381572 1.111907 0.363469 -0.764922 0.097988 -0.089608 0.119185 0.752377 -0.478676 0.049075 0.298166 -0.075930 -0.411869 -0.106818 1.009089 0.310511 0.463939 0.603182 -0.011292 0.175496 0.656928 0.051603 0.419323 -0.974124 0.308878 -0.328885 1.278203 0.139141 -0.016848 0.233566 0.847710 0.674743 0.415774 -0.113464 0.343682 -0.434117 -0.243576 0.013992 0.163942 -0.643799 0.162681
reduced -0.528923 -0.108644 -0.002068 0.457283 0.297165 -0.427902 0.942577 0.092828 -0.050952 0.730002 -0.009578 -0.604252 -0.563899 0.115016 0.524982 0.632416 -0.015563 0.314221 0.228379 0.786758 0.115138 -0.065706 0.276606 -0.232433 -0.123855 0.832989 0.542704 -0.550596 0.291526 0.840443 0.559835 0.687294 -0.595514 0.276161 -0.229872 0.286776 -0.258049 -0.451390 0.071444 0.726704 0.980513 0.619649 -0.659631 1.313313 0.045715 -0.850889 0.323395 -0.088543 0.041347 0.369742
p450 -0.543718 0.263266 0.594504 0.594807 0.189355 -0.376905 0.419326 0.281808 -0.925888 0.565621 0.021693 -0.618356 -0.169268 0.181107 -2.053588 -0.167042 0.685453 0.805057 -0.135761 1.937646 -0.388541 -0.330541 -0.563033 0.987815 -1.115892 0.715620 0.154400 -1.355107 -0.038670 -0.583585 0.986239 -0.681226 0.185992 -0.784844 -0.938778 0.666970 -0.480876 -0.345802 0.061420 0.110701 0.451497 -0.682810 0.417649 0.806998 0.018762 -0.500209 -0.693241 -0.181798 0.691554 -0.701797
recommended 0.506641 -0.191331 0.559442 0.815093 -0.216740 0.931102 -0.102187 0.725851 -0.761146 0.434852 0.206156 -0.534489 0.456864 -0.132836 -0.584875 0.709670 -0.416881 0.355708 0.737240 0.361066 -0.918009 -0.103769 0.712865 0.238948 0.399538 -0.006231 0.083598 0.849335 -0.876571 0.023595 0.976562 0.811196 -0.679611 -0.905729 -0.245018 0.145801 -0.330753 0.737589 0.216944 1.596427 0.593192 -0.257439 0.947236 0.369403 0.412272 -0.904510 -0.230897 -0.128725 0.670921 0.290564
either 0.558187 0.136796 1.156120 -0.143975 -0.427040 0.166010 0.969864 0.871694 -0.695543 0.729010 0.274114 -0.484416 0.217989 -0.267896 -0.366906 -0.371261 -0.618081 0.054623 0.872688 0.758512 -0.838635 0.093010 0.529685 0.026463 -0.296702 0.433570 0.328446 0.104251 0.249277 0.543722 0.419016 0.459464 -0.221580 0.215106 -0.116956 -0.414490 -0.254505 0.251072 0.057156 -0.143422 0.034709 0.319390 0.083270 0.275978 -0.178747 0.222837 -0.894686 -0.412567 0.156243 -0.516883
between 0.228464 -0.052550 0.060251 -0.084030 0.274738 0.130624 -0.081491 0.214551 -0.311735 0.661982 -0.541402 0.340914 -0.373570 -0.800737 -0.879077 -0.045028 0.208918 0.829584 0.783632 -0.066895 0.018710 -0.667218 0.181379 0.726220 0.296319 0.355459 0.087606 0.229066 0.561988 0.096613 0.624810 -0.427121 0.067789 -0.761558 -0.078698 0.182535 0.055176 -0.065148 1.132331 -0.353416 1.503548 0.038935 0.245323 0.923023 0.602939 0.700306 0.589010 0.463510 -0.923888 -0.343057
following -0.302642 -0.096181 -0.114619 0.166080 -0.404786 -0.561095 0.608918 -0.038872 -0.198659 0.464626 0.210091 0.296891 0.368539 0.345443 -0.243914 -0.065479 -0.409806 -0.113030 0.555651 0.630395 -0.842531 0.529738 -0.158991 0.114651 0.028430 -0.515508 -0.149103 0.006632 0.629081 -0.697693 0.249927 -0.304245 -0.429022 -0.928852 0.020746 0.323160 -0.273524 0.259679 1.279162 -0.165600 1.193748 0.141736 0.122093 0.891761 0.711124 -0.137571 -0.707039 0.641587 -0.269359 -0.173901
because -0.182419 -0.715206 0.174956 0.151130 0.462678 -0.023753 0.056408 -0.485088 -0.468433 0.205366 0.727513 -0.180602 -0.103099 -0.029899 -0.912622 0.781833 0.100830 -0.470563 -0.398584 0.181965 0.121535 -0.941849 0.647366 0.081665 0.082242 0.111066 0.347969 0.452277 -0.122932 -0.684500 0.373830 0.910544 -0.381110 -0.455825 -0.254820 0.133127 -0.198900 -0.204762 1.121796 0.499449 0.688531 -0.241861 0.189743 1.507847 0.357685 -0.289747 -0.056161 -0.051430 -0.012966 -0.014436
during -1.193625 -0.111538 0.144109 0.484526 0.396025 0.078942 0.429368 0.699995 -0.416948 0.315560 -0.275078 -0.535052 0.536500 -0.477711 -0.555719 -0.380676 -1.388155 0.533434 0.535387 0.472277 -0.254277 0.208913 0.016198 0.434710 0.179746 0.194134 0.343545 0.703927 0.068822 -0.148137 0.057562 0.057266 -0.626746 0.131517 -0.061351 0.391226 -0.835695 0.231950 0.462183 0.115604 0.577234 0.188441 0.375234 0.046495 0.695939 -0.558511 -0.472181 0.412736 -0.364002 -0.131461
vitro -0.134820 0.128076 -0.055494 0.090669 0.454791 -0.218174 0.551155 0.720180 -0.572608 1.439134 -0.523155 0.460816 -0.852340 0.102066 -1.810321 0.691871 0.821608 -0.276733 0.973649 0.151036 -0.283837 0.075551 0.173098 1.341551 0.710053 0.394885 0.729838 0.288273 -0.940698 -0.574990 0.418230 0.106015 0.311164 -0.215949 -0.666083 -0.657743 -0.256622 0.143616 0.171112 0.827204 -0.045526 -0.042063 0.636817 -0.316669 0.230003 0.012429 0.088710 -0.761664 -0.498846 -0.614604
hour -0.036097 -0.198007 -0.041886 0.607353 -0.212800 0.448583 -0.000235 -0.292935 0.291115 0.825508 -0.438846 0.178482 0.300945 -0.101843 -0.658577 0.009510 -0.446076 0.116831 0.570399 0.782889 -0.712563 0.252340 0.858376 0.530324 0.217296 -0.156360 -0.662730 0.543314 0.430057 1.019511 0.543671 0.835187 -0.895508 0.011479 0.434011 1.129159 -0.939827 0.719056 0.538514 0.792647 1.631944 -0.524710 0.316432 0.771564 0.152017 1.433040 -0.437481 -0.405326 0.013957 -0.869208
both -0.746228 -0.149524 0.170724 -0.170229 -0.168538 -0.059723 0.164408 0.467915 -0.486121 0.705680 0.296843 -0.223183 -0.065606 -0.323458 -0.500044 0.135422 0.220143 0.294362 0.189362 0.305429 0.139670 -0.436946 0.882777 -0.060701 -0.561046 0.562778 0.009306 0.483880 0.161235 -0.067854 0.716873 1.389600 0.027421 0.157173 0.262376 -0.038397 -0.073278 -0.300372 0.174260 0.139087 0.753660 0.377538 -0.296184 -0.013080 0.238743 0.154638 0.440514 -0.769924 -0.110441 -0.493779
than 0.762182 0.340915 0.292017 0.863439 -0.316282 0.251927 0.487029 0.383155 -0.332393 1.376241 0.455550 -0.467630 -0.141104 0.320403 -0.233216 1.329690 -0.352618 0.367562 0.335440 0.844233 0.468785 -0.508375 0.096013 -0.193211 -0.587013 0.582716 0.448319 0.325125 1.010327 -0.241788 1.099574 0.604053 -1.160297 0.355899 -0.582935 -0.500051 -0.638492 -0.101263 0.287356 -0.089245 0.528486 0.857205 -0.434584 0.138652 -0.122423 0.900672 -0.247469 0.472805 0.656908 -0.896026
enzyme -0.481752 0.790272 0.289645 0.249553 0.144982 -0.860952 0.163928 -0.008004 -1.871367 0.594442 0.601185 0.121931 -0.479671 0.074926 -1.192480 -0.210632 -0.040209 0.223035 -0.128440 0.257216 -0.537509 0.185912 -0.105934 0.973479 -0.864155 0.379304 0.097979 -0.527672 -0.303734 -0.073533 1.101864 -0.931715 0.217316 -0.225715 -0.393097 0.599603 -0.150524 -0.649344 0.274081 0.561500 0.720715 -0.160229 0.555582 0.036446 0.339293 -0.236461 -0.063205 -0.583121 0.009237 -0.660278
lithium 0.574454 -0.324864 0.464832 1.094984 -0.032297 -0.697236 -1.591416 1.550267 -1.559104 0.303835 1.130530 -0.115882 0.634606 0.995018 -0.550872 0.006942 -0.414538 0.081625 -0.107284 0.935332 -0.294004 -0.410072 0.030563 0.548084 -0.407391 0.571223 0.488532 0.291879 0.704195 -0.138293 -1.481722 -0.274367 -1.391647 -0.407376 0.470662 0.817068 -1.758679 -0.054795 0.418106 1.366846 0.465830 0.620598 0.137367 0.945415 0.370857 -1.378677 0.337182 0.107994 -0.268651 0.074808
ketoconazole -0.204609 0.648112 0.500497 0.559083 -0.220764 -0.606297 -0.391424 -0.209194 -1.421256 1.620445 0.155516 0.521969 -0.739392 0.700753 -1.059459 0.079834 0.005106 0.803275 0.858314 0.741103 -0.116491 -0.041887 0.373356 -0.041050 -1.063878 -0.046830 -0.027538 -0.105621 -0.831223 -0.153485 0.098739 0.738167 -0.285181 -0.042833 0.506671 0.235370 0.401183 0.296804 0.596477 0.291384 -0.030819 0.253451 0.336529 0.282650 -0.205880 0.213652 -0.756244 -0.869087 0.037019 0.432106
however -0.361186 -0.193061 0.326426 0.239616 -0.512352 0.153001 0.078637 0.425915 -0.907602 -0.023858 -0.574438 0.212999 0.422385 -0.010307 -0.267468 0.382606 0.680135 0.684802 -0.455414 0.082984 -0.075574 -0.186205 0.229050 0.480092 0.244631 0.128167 0.517674 0.201184 -0.088670 -0.259810 -0.124575 1.069943 -0.693005 -0.451954 -0.493564 0.156578 -0.558373 0.482524 1.330969 0.408239 0.128963 -0.184796 0.197999 0.248884 0.295691 0.179453 -0.071447 -0.166369 -0.253847 -0.116281
theophylline -0.041752 0.505794 -0.152755 0.415016 -0.366355 -0.968889 0.334517 0.811772 -1.014690 1.256647 -0.093735 0.206726 -0.043067 0.280552 0.090540 0.251396 0.084183 0.554035 -0.498340 0.732925 0.122858 -0.518411 -0.026444 0.226755 -0.276554 -0.013681 -0.468846 -0.653870 0.244459 0.349348 -0.141971 0.592326 -0.242732 0.036140 0.093694 0.056940 0.149843 -0.478205 1.204356 1.132871 -0.208173 0.969800 -0.135935 0.271512 0.219578 -0.368840 0.115933 -0.357930 -0.435434 0.163572
taking -0.072626 0.107421 0.251178 0.472976 0.093491 -0.317279 0.453624 0.238919 -0.727252 1.116362 0.767167 0.562335 1.403424 0.251200 -0.628993 -0.354213 0.199345 -0.280004 0.571391 -0.440039 -0.318923 -0.783457 -0.306082 0.250304 0.386388 0.123436 0.889146 -0.074522 -0.203686 -0.869535 -0.018656 0.087622 -0.731365 -0.204334 0.741810 0.195806 -0.135382 0.811479 0.385657 0.932045 1.077050 0.023710 0.480276 0.589264 0.276639 0.626290 -0.084373 0.283205 0.182045 -0.159967
metabolized 0.083624 -0.028631 0.753081 -0.142844 -0.021349 -0.646028 0.485342 -0.437813 -0.545083 0.813403 0.041585 -0.109892 -0.126721 0.229579 -0.747785 -0.309586 0.482450 0.295165 0.576089 1.026846 -0.567590 -1.034329 -0.381117 0.968533 -0.938329 0.747231 0.390605 -0.009210 -0.457625 0.164759 0.811915 -0.101397 -0.143577 -0.451601 -1.243468 0.492120 -0.204893 -0.450395 -0.203126 0.889499 0.281124 -0.765670 0.587112 0.262256 0.665928 -0.678374 -1.049913 -0.522344 0.252974 -0.202483
cytochrome -0.535285 0.383566 0.366167 0.527271 0.187514 -0.369613 0.198428 0.074113 -1.054235 0.563525 0.245838 -0.336689 -0.241360 0.085994 -1.916548 0.181559 0.275765 0.526881 0.178381 1.761790 -0.356831 -0.126588 -0.307106 1.119609 -0.975302 0.578819 -0.025914 -0.960717 0.010985 -0.390577 0.941914 -0.666416 0.317668 -0.650745 -0.997289 0.404784 -0.256197 -0.206175 0.210179 0.389641 0.240994 -0.648189 0.334728 0.676136 0.195478 -0.364180 -0.874671 -0.227623 0.644939 -0.591470
dosage -0.014244 0.722354 0.614497 1.159366 0.123621 1.024295 0.752310 0.020445 -1.336022 0.385405 -0.185199 -0.964992 0.291193 -0.285225 -0.010939 -0.094293 -0.161308 0.246319 -0.217015 0.571385 -0.915318 -0.987400 -0.201647 0.340242 0.046942 0.345448 -0.904471 -0.500023 0.204854 0.784187 0.150684 0.084444 -0.456164 -0.461263 -0.103623 0.685617 -0.089157 -0.393403 0.713346 0.889310 0.471392 0.251092 -0.016192 -0.151146 0.138706 0.032323 0.055880 -0.368548 0.318140 0.603813
toxicity 0.672044 0.267965 0.294684 0.199731 -0.291217 -0.063715 0.321016 0.917845 -0.733038 0.690579 1.006318 -0.111244 0.329161 0.782889 -0.562766 -0.906566 -0.081137 -0.608207 -0.457125 0.507482 -0.252523 -0.633391 0.817302 0.209637 0.164004 0.322913 -0.539755 0.212462 -0.159425 0.160136 -0.253301 0.870004 -0.562741 -0.630404 -1.217313 0.140757 -0.172003 -0.085401 0.518439 0.461452 -0.213714 1.335382 -0.644205 0.723510 -0.004086 -0.494233 0.829123 0.220577 -0.634339 -0.006057
known -0.810703 0.342232 0.769275 0.748800 -0.389090 -0.249949 0.191580 0.001114 -0.133156 -0.436860 0.226354 -0.256117 0.216429 0.740021 -1.610905 -0.771485 0.300783 -0.570028 0.706747 -0.273565 -0.421671 -1.135210 0.424966 0.453596 -0.286138 0.260270 0.770322 0.850900 -0.012165 0.188908 1.122877 -0.626362 0.017102 -0.531660 -0.630259 0.543729 -0.011587 -0.920555 0.669941 0.600367 -0.506820 -1.333839 0.081712 1.409739 0.322400 -0.542658 -0.936870 0.158098 0.150099 0.226257
did 0.181882 1.110418 0.512118 0.037869 0.017378 -0.579563 -0.291382 0.613435 -0.189107 0.177455 0.354294 -0.261844 0.398117 -0.042079 -0.273132 0.601479 0.430281 -0.274258 0.065162 1.493555 -0.579814 0.150277 0.401448 -0.437695 0.502961 0.938988 1.163658 -0.070762 -0.006719 0.888305 0.220319 0.783246 0.083164 0.262301 -0.228775 -0.347778 0.437640 0.437236 0.570795 -0.016970 0.684565 -0.621259 1.246340 0.298967 0.232235 0.124474 -0.630543 -0.300983 -0.904360 -0.513571
risk 0.691589 0.108343 0.693568 0.976004 0.773587 0.062458 0.132619 -0.230350 -0.570496 0.363806 1.365212 0.146865 0.357920 0.709348 -0.576158 -0.651684 -0.077902 -0.167306 0.499630 0.251407 -0.569668 -0.137730 -0.270597 -0.240253 0.415732 0.282037 0.433985 0.515680 -0.142764 -0.888266 0.120081 -0.051974 -0.336190 0.532910 -0.593711 0.673918 -0.167546 0.101526 0.769102 1.031441 -0.142917 -0.016688 -0.325310 1.214393 0.200131 -0.397582 0.044863 0.477355 -0.534950 0.168721
but -0.195842 -0.312666 1.085861 0.304304 -0.207327 -0.075468 -0.371187 0.085525 -0.602894 0.334744 -0.593464 -1.172891 -0.003195 0.151540 -0.395802 0.191253 0.200639 -0.098421 0.074301 0.233168 0.438996 0.053905 0.266253 -0.111132 -0.559566 0.810202 0.291879 0.297407 0.531567 0.207207 0.371497 0.354013 -0.761300 -0.105536 -0.456131 -0.848715 -0.653732 -0.178100 0.373621 -0.200752 0.367763 -0.858029 -0.021136 0.481610 -0.103622 -0.369010 -0.620712 0.296866 -0.588791 -0.752273
1 0.066018 0.993544 -0.891322 0.622461 -0.064389 -0.218693 0.180492 -0.145772 0.053378 0.244876 -0.356439 -0.258626 -1.029115 0.013356 -0.392944 0.003484 -0.365433 0.510666 0.271413 0.414549 -0.175551 -0.004202 0.044198 0.024246 -0.467447 -0.087619 0.036850 0.207320 -0.007089 0.051134 0.359876 1.197935 -0.459465 0.315312 0.895765 -0.056815 -0.636784 -0.223859 0.952888 0.413954 0.615625 -0.866913 0.283100 0.372806 0.145454 0.981747 -0.811711 -0.101319 -0.029779 -0.071621
2 -0.289304 1.284652 -0.934762 0.121564 -0.350397 0.131730 -0.205555 -0.107447 -0.649060 0.761971 -0.501181 -0.461691 -0.181201 0.187036 -0.534857 -0.283585 -0.538398 0.230865 0.257286 -0.000915 -0.683877 0.348729 -0.012446 0.686943 -0.116854 0.367071 -0.518482 0.116893 0.733189 0.377676 0.761346 0.675947 0.044974 -0.152263 0.367926 0.434880 -0.872219 0.337347 0.960426 0.267973 0.593763 -0.220170 -0.177715 0.565321 0.115535 0.720863 0.152638 0.252203 1.063898 -0.426431
including -0.480054 0.141652 -0.027170 -1.075550 0.214037 0.209121 0.372926 0.023477 -0.171617 0.847998 -0.559742 0.262902 0.364224 0.122894 -0.968392 -0.442656 -0.095616 -0.449668 -0.147392 0.054096 -0.448774 -1.235839 -0.638363 0.083764 -0.644490 0.203403 0.863467 0.477781 0.362037 -0.856581 0.644508 -0.070758 -0.345978 0.473373 -0.892354 0.009827 -0.725784 -0.192675 -0.165336 0.683544 0.336987 -0.081534 0.692007 0.852990 -0.069221 0.082940 0.199438 0.143844 -0.130281 0.126563
some -0.732601 0.325452 -0.407505 -0.644818 0.463795 -0.027909 -0.229365 0.675906 -0.298974 1.233433 0.342882 0.594006 0.464952 0.914534 0.139854 0.629085 0.244468 -0.141525 -0.027845 0.346517 -0.168169 -0.375760 -0.174683 -0.157779 -0.551397 0.549673 -0.312031 1.058520 -0.000484 -0.414724 0.081323 0.213665 -0.598978 0.003166 -0.160341 -0.334680 -0.263297 -0.777633 0.210014 1.028773 -0.027442 -0.405117 -0.364233 0.508219 0.561607 -0.023659 0.313633 0.049232 -0.538110 0.443531
absorption -0.404378 0.443108 0.058655 0.400362 -0.642878 0.975245 -0.224737 -0.089811 -1.418079 0.788688 -0.248623 0.338336 -0.511779 -0.057593 0.846488 0.122665 1.180824 -0.038322 0.861995 0.850511 -0.380721 -0.980071 0.261705 -0.228975 -0.107647 -0.086513 -0.872601 0.121841 0.215595 -0.341824 -0.365746 0.682620 -0.108125 0.324545 -0.597170 0.953966 0.626594 -0.164030 0.360639 0.382210 0.910117 0.220941 0.806191 0.748218 -0.605003 0.091942 -1.150062 0.062209 -0.621564 -0.471161
anticoagulant -0.623477 0.770418 -0.545010 0.447371 0.306937 -0.486875 0.589376 0.345873 -1.341281 0.479356 0.335080 -0.434015 0.645261 -1.113253 -0.255845 0.467018 0.383225 -0.311360 0.573519 1.045228 -0.205228 -1.316508 -0.077647 -0.362757 -0.337930 0.150271 -0.130327 -0.549415 -0.821332 -0.084599 -0.173214 -0.260376 -0.536508 -0.003961 0.720457 -0.112390 -0.206726 0.220188 0.732151 1.131587 0.249507 0.074217 -0.187400 1.181008 -0.362911 -0.347058 -0.156219 0.430622 -0.081439 0.008914
reaction 0.047261 0.223060 0.779292 0.705653 -0.159088 0.199242 0.473815 1.106915 0.151028 0.417237 1.076326 -0.027325 -0.093278 -0.228558 -1.052423 -0.236148 -0.439938 -0.180372 0.044363 -0.020742 -0.578643 -0.591416 0.737798 -0.125024 -0.686392 -0.184645 -0.071136 0.312853 -1.294219 -0.200915 0.505597 0.522192 0.550437 0.152730 -0.787724 0.280090 -0.785255 0.150263 0.370683 1.605637 -0.071751 -0.544482 0.881429 0.602592 1.422668 1.244186 0.194355 1.202615 -1.874586 -0.606944
healthy 0.788470 1.104660 0.137033 0.335964 0.573954 -0.650780 0.013313 0.409140 -0.390258 1.152352 -0.972955 -0.515103 0.308662 0.484669 -1.112491 -0.034506 0.420329 -0.703916 0.903559 1.288359 0.361481 0.328781 0.135340 -0.035364 0.096369 1.020714 0.119065 0.226072 0.667573 -0.238817 -0.602412 0.604644 0.047306 0.135526 0.053979 0.084139 -0.418499 0.769909 0.526056 0.750647 0.508835 0.085661 0.581998 0.309121 0.456339 -0.185042 -0.725622 -0.178876 0.125952 0.396802
subject 0.572640 0.387588 0.419216 0.515835 0.338994 -0.769505 0.224598 -0.161434 -0.575019 0.789728 -0.596158 -0.341145 0.749596 0.596716 -0.352658 -0.050630 0.288803 -0.323597 0.323293 0.918886 0.484503 0.438425 0.237364 -0.071984 -0.201914 0.922756 -0.177418 -0.063597 0.732273 -0.221563 0.143371 0.571098 -0.302058 -0.203733 -0.351013 -0.276808 -0.663824 0.684101 0.767219 0.822117 0.584020 0.272152 -0.057644 0.278792 0.432496 0.148188 -0.668264 -0.444289 0.068748 0.361553
cause -0.034162 0.122501 0.534379 0.567237 -0.326218 0.047343 -0.769588 0.161194 -0.769809 0.516101 0.036354 0.020568 0.001122 0.536499 -0.628347 0.038550 -0.542038 -0.187785 -0.311741 -0.127359 -0.806926 0.021191 -0.201340 0.138772 0.084050 0.543890 0.655130 0.629190 0.014518 -0.184889 -0.134008 -0.474092 -1.023356 0.472878 -1.149692 0.418068 0.393145 0.909698 0.610685 0.352550 0.083439 -0.245224 -0.317946 0.616692 0.317055 0.239959 -0.653274 -0.105484 -0.655890 -0.295052
cimetidine -0.720113 0.480050 0.356579 0.255225 -0.678068 -0.295685 -0.186257 0.339245 -0.473024 1.109873 0.353908 -0.562621 -0.535408 -0.397484 -0.499682 -0.191047 -0.234835 0.014603 0.795724 0.789420 -0.358451 -0.632018 0.459416 0.249219 -1.028559 0.132112 0.399285 0.113461 0.397927 -0.528926 -0.565451 0.285183 -0.348806 -0.717883 0.616626 0.410333 0.252789 0.300483 0.470054 0.615920 0.089664 -0.118771 0.640413 0.066465 0.595465 -0.224685 -1.033831 0.068477 0.105126 -0.127833
change -0.143216 1.420831 0.615457 0.188001 -0.335251 0.236101 -0.003109 0.571651 -0.624262 1.214219 0.113865 -0.242514 0.469060 -0.341222 0.095902 -0.034805 0.241274 0.100346 0.383562 -0.125460 -0.336249 0.062084 -0.312995 0.623401 0.372218 1.362798 -0.122406 -0.258651 -0.062263 1.042631 0.656137 0.299067 0.097217 -0.020620 0.137760 -0.093624 -0.387858 -0.571975 0.587997 0.015881 0.628061 0.425088 -0.504578 0.224740 0.580319 -0.150847 -0.533352 0.890361 -0.412008 -1.283401
clinically -0.073825 0.216019 0.621773 0.025227 0.011410 0.416614 -0.710943 0.389642 -0.884429 0.915453 -0.253977 -0.757954 -0.095543 0.106522 -0.546595 0.004199 0.520389 0.348103 0.515106 0.199538 -0.455202 -0.216263 -0.586687 0.796890 0.210190 0.798383 0.714916 -0.025359 0.259678 0.692963 0.166410 -0.252435 -0.199157 -0.511934 0.302298 -0.820462 -0.124828 -0.180445 1.034132 0.215060 -0.005267 0.207583 0.184510 1.046620 1.021449 0.610355 -0.658693 0.995954 -0.233297 -0.344973
10 0.002768 1.014996 -0.567711 0.305957 -0.590428 -0.853814 -0.073704 0.012391 -0.738084 0.698645 0.201605 0.129172 -0.386192 -0.269137 -0.932970 0.015920 -0.604238 -0.001574 0.179615 0.854866 -0.251401 0.630368 -0.319770 -0.281961 0.320890 0.491587 0.675514 -0.307473 0.535465 -0.014634 -0.524113 1.692145 -0.281969 -0.457988 -0.243951 0.202356 -1.073102 -0.184828 0.222683 -0.392015 0.563955 -0.100013 -0.258382 0.596821 0.289850 0.287389 -0.080424 -0.241973 0.697644 -0.046328
response -0.620020 -0.012738 0.546962 -0.616670 0.301450 -0.475021 1.227586 0.155088 -0.776069 0.211215 -0.232178 -1.336946 0.410201 -0.775266 -0.649804 0.401490 0.312409 0.377992 0.295431 0.395306 0.454026 0.229790 0.377695 0.059238 -0.241828 1.365241 -0.207792 0.024073 -0.346890 -0.662924 0.171283 0.406792 -0.748273 0.637008 -0.623162 0.315126 0.045135 -0.117107 0.531893 0.840684 0.700309 -0.630061 -0.094893 0.109383 -0.667158 0.660825 0.003158 0.471403 -0.812522 0.472466
medication -0.227173 -0.165644 -0.021004 -0.136359 -0.264543 -0.277592 1.069729 0.578382 -1.596422 0.405267 0.462514 0.747826 0.774810 0.177092 0.067195 -0.417428 0.068311 -0.181098 0.539926 -0.193863 -0.988038 -0.680702 -0.543806 -0.580915 -0.093408 -0.223370 -0.158281 0.733173 -0.305369 0.068993 1.038719 -0.322823 -0.563276 0.034879 0.334127 -0.122637 -0.431467 -0.476921 0.063467 0.667369 0.029610 0.113550 0.691572 0.789194 0.269698 0.546785 -0.479036 0.281896 -0.294398 0.201134
inhibit -1.114827 0.287836 0.798842 -0.350691 0.606217 -0.423782 0.112129 0.090359 -0.236911 1.146165 0.458285 0.432005 -0.092174 0.251561 -0.894504 0.948410 0.527001 0.293063 0.190393 0.395057 -0.984841 0.132262 0.265690 0.204345 -0.677852 0.900727 0.676250 -0.708847 0.107650 0.030169 0.441349 -0.100446 -0.196950 -0.044416 -1.426578 0.220962 0.673061 -0.274721 -0.107608 0.134933 1.015987 0.181350 0.610631 0.735903 0.250979 -0.047948 -0.942800 -1.099550 0.054351 -0.007689
significantly -0.439535 0.565558 0.347761 0.318846 0.235516 -0.395323 0.221850 0.563297 -0.534621 0.662933 0.298988 -0.414371 0.008259 -0.154929 0.345434 0.013107 0.412113 0.186191 0.137638 0.720878 -0.228310 0.541241 0.325658 -0.144037 0.207456 0.018343 1.128687 0.330225 0.168508 0.021845 0.826618 0.816436 -1.177811 0.073889 -0.152551 -0.064138 -0.254646 0.041296 -0.204503 0.049094 0.818078 0.125065 -0.089117 0.255516 -0.618757 0.216735 -1.058987 -0.390671 -0.768136 -0.520583
affect -1.071975 0.191363 0.540520 -0.544815 -0.346777 -0.107451 -0.989455 0.415863 -0.058758 0.530737 0.357171 0.116046 0.666080 0.083774 -0.252802 0.423370 0.550275 0.065498 0.533717 0.656626 -0.842828 0.420251 0.207192 0.019981 0.004132 1.329230 0.911265 -0.436692 0.069751 1.044598 0.918564 0.682106 -0.065812 0.462457 -0.635576 0.131536 0.452757 -0.093383 0.543870 0.585486 0.742221 0.232096 0.720938 0.541355 0.182172 0.153621 -1.190268 -0.171909 -0.185592 -0.389453
daily 0.624300 0.448980 -0.258753 1.280060 -0.336982 -0.944325 0.462182 0.951359 -0.926257 1.372106 0.077279 0.254135 0.473402 0.117872 -1.337228 0.339986 0.021752 -0.148683 0.462648 0.875823 -0.281536 0.232495 -0.606072 -0.716990 -0.107589 0.781739 -0.167309 -0.067282 0.447309 1.065511 -0.339500 0.979552 0.142054 0.166134 0.146343 0.148605 -0.260088 0.146419 -0.142411 0.237122 0.495066 -0.220232 0.792644 0.411425 0.116577 0.340322 -0.078213 0.599356 0.669714 0.656850
human -0.598549 0.127932 -0.191302 0.551661 -0.243398 0.631532 0.285148 0.186689 -0.604731 0.463602 -0.331164 0.705283 -0.046214 -0.127865 -0.682339 0.609743 0.722356 0.120288 0.908940 0.874472 -0.045506 0.466110 0.416623 0.870344 0.104598 0.401827 0.268725 -0.568641 -0.851362 -0.380429 0.843993 0.393668 0.001359 0.708114 -0.085037 -0.762550 -1.153745 0.121745 0.405185 1.188086 0.465608 0.511930 0.983329 0.042105 1.301214 -0.672773 0.455328 -0.319218 -0.162398 -1.152529
concurrent -1.265539 -0.080281 0.291870 -0.031875 -0.298271 0.216037 0.444077 0.302095 -0.386559 0.733786 0.354866 0.073498 -0.042364 -0.138935 -0.647638 -0.076143 -0.256089 0.513692 0.197769 0.689342 -0.524370 -0.466799 -0.030885 -0.386183 0.630418 0.054591 -0.380740 1.452939 0.797302 -0.159860 -0.256375 -0.049801 -0.051103 -0.526634 -0.460110 0.466224 0.030319 0.509881 0.851153 0.965202 0.687869 0.087944 0.439539 0.516559 -0.662156 0.169617 0.023225 0.052034 0.282597 -0.156743
alone -0.274531 0.704907 0.941495 0.296706 0.320284 -0.383136 0.324800 0.316347 0.346494 0.843390 -0.154332 -0.090945 -0.071681 -0.366013 -0.765517 0.452761 -0.441218 0.060925 0.880608 0.116389 -0.478574 0.286583 0.134008 -0.143406 0.140906 0.293276 0.115410 0.231157 0.753566 -0.063125 -0.113857 1.107811 -0.533685 0.520579 -0.781759 -0.651724 -0.840500 0.656362 -0.529578 0.029858 0.222137 1.537230 0.757250 1.113070 -0.170298 -0.237093 -0.817383 0.427337 0.554145 -0.409419
single 0.922360 0.987713 0.367753 0.026271 -0.452015 -0.861062 0.127069 0.169475 -1.083179 0.721246 -0.423904 -0.110702 -0.295160 0.160070 -0.638344 0.227481 -0.062932 -0.274877 0.793436 0.979311 -0.333899 0.370536 0.266386 -0.027057 0.271504 -0.907207 0.245950 -0.043887 -0.209783 0.160277 0.145509 1.167410 -0.088054 -0.381385 -0.436443 0.201551 -0.446954 0.565344 0.261797 0.396131 0.529832 -0.077407 0.327152 0.964905 1.391803 -0.051490 0.175582 0.023010 -0.042783 0.594547
concurrently -0.951776 0.096567 0.078551 0.520923 0.177958 -0.120692 0.210119 0.067410 -0.910922 0.625138 0.155683 -0.167115 0.270474 0.431791 -0.090545 -0.491994 -0.370133 -0.260438 0.485699 0.348511 -0.567566 -0.517151 0.258049 -0.239514 -0.168917 -0.138594 0.647681 0.823626 0.255990 0.114211 0.492593 0.329640 -0.313812 -1.155428 0.115518 -0.820510 -0.571289 -0.038964 -0.080313 0.835278 1.219812 0.546035 -0.446011 1.022409 -0.517620 0.449134 -0.348212 -0.394169 0.253726 0.242863
volunteer 0.690038 1.067528 -0.112504 -0.058913 0.795564 -0.522682 0.107659 0.795149 -0.432310 0.878001 -0.926860 -0.149639 0.459743 0.213325 -1.225559 0.400272 0.622443 -0.705934 0.888151 1.297723 0.038561 0.433226 0.290962 -0.113214 0.155221 0.630076 0.067893 0.530249 0.686162 -0.116010 -1.129982 0.571917 -0.134147 -0.171854 0.045496 0.429186 -0.563851 1.054636 0.602755 0.542412 0.709201 0.161596 0.283493 0.612779 0.591393 -0.315570 -1.178878 -0.179768 -0.304318 0.263354
action -0.079258 -0.320682 -0.039918 -0.596778 0.067636 0.134980 0.176383 -0.405073 -0.762254 0.282649 0.409099 -0.517309 -0.223640 -0.186071 -0.968798 0.034034 -0.399923 -0.629556 0.391725 0.467328 -0.832599 -1.617465 -0.164396 0.444378 0.045642 -0.118600 -0.653195 0.154038 0.665126 0.407285 -0.156551 0.738547 -0.444731 0.591267 -1.313088 0.108919 -0.466771 -0.778432 0.968081 0.336042 0.329927 -0.393543 -0.462850 0.105835 -0.857695 -0.130963 -0.352279 0.017716 -0.656398 0.526467
approximately -0.008618 0.323665 0.026810 0.765938 -0.378563 -0.396997 0.708283 -0.079218 0.266913 1.135956 0.162973 -1.225632 -1.017304 -0.507330 -0.571823 -0.248068 0.238964 -0.326606 0.116825 0.362056 0.130633 0.562515 -0.299573 -0.365144 -0.193451 0.247101 -0.051289 -0.122442 0.735117 0.121029 0.787642 1.042933 -0.390106 -0.033080 0.072824 0.674497 -1.050894 -0.110145 0.012197 1.198092 0.847171 0.160219 -0.184088 1.464743 0.398084 -0.370804 0.019143 -0.088803 0.860241 -0.326025
rat -0.494586 0.905286 -0.937098 -0.045239 0.066272 -0.284512 1.135884 -0.202168 0.019924 0.730640 -0.040313 -0.748689 0.279696 0.109666 -1.045074 0.218651 1.000438 -0.823094 0.351339 -0.288831 -0.553025 1.057705 1.623764 -0.100870 -1.241248 0.714521 -0.311088 -0.223264 -0.536740 -0.374093 0.133381 1.117193 0.083155 -0.433099 -0.117662 0.565019 -0.800611 0.063000 0.997364 -0.099146 0.411084 -0.047682 0.606559 0.192421 -0.032992 -0.073133 0.574809 0.406440 -0.483575 -1.721102
who -0.608293 -0.187008 -0.066977 1.036661 0.446508 0.465948 0.635276 0.433720 -0.376151 0.473706 0.152049 -0.440410 1.480611 0.360839 -0.872203 -0.388537 0.095057 -0.420429 0.192182 0.058173 0.303990 -0.346632 -0.587478 -0.234461 -0.680295 0.989820 0.282846 -0.100708 0.221671 -0.734025 -0.442058 0.435246 -0.089061 -0.363645 0.005839 -0.156697 -1.530387 1.042224 0.307924 1.063553 0.987349 -0.210414 0.456712 0.031281 0.275038 0.387406 -0.629230 0.074210 -0.247432 0.432458
function -0.407818 -0.174160 0.193681 -0.244272 0.593128 0.749973 -0.003057 0.524105 -1.138849 0.247358 0.859865 0.180862 0.621393 -0.021328 -0.251073 -0.517344 0.370324 -0.383298 -0.535915 0.390463 -0.348085 -0.117731 0.507434 1.293152 -0.009765 1.469702 -0.247134 0.367352 -0.153477 -0.115022 0.019507 0.322212 -0.531695 -0.360639 0.120496 0.211447 -0.696908 -0.641921 0.180746 1.241945 -0.472059 -0.396151 0.121788 0.272497 0.001692 0.083227 -0.129631 -0.526301 -0.925206 -0.798756
shown -0.199078 0.258837 -0.188454 0.079621 -0.754067 0.406546 -0.015173 0.572622 -0.317158 0.289650 -0.754765 -0.426824 -0.240687 0.727564 -1.633474 0.499940 1.163575 -0.660048 0.662261 0.614139 0.641990 -0.247090 0.677388 -0.721017 -0.165891 0.672482 1.153165 0.379203 -0.243871 0.370633 -0.261941 -0.497298 -1.093885 -0.021957 -1.149807 0.359003 -0.099164 0.212530 0.839426 0.106264 0.356569 0.049394 0.312989 0.835174 0.327901 -0.069682 -0.040642 -0.217111 0.181825 0.345111
monitored 0.064682 -0.394165 -0.157711 0.604640 -0.234883 -0.499181 0.181502 0.113728 -0.390969 0.961049 -0.138449 -0.713120 1.596989 0.400579 -0.315979 0.218513 -0.883764 -0.213865 0.275547 0.716439 -0.386903 -1.468021 0.588531 0.905494 0.954783 0.869669 -0.144017 0.342090 -0.945841 0.029371 0.848095 0.320939 -1.044066 -0.163382 0.447204 0.615830 -0.045282 -0.644193 -0.336706 0.746543 0.182785 -0.010591 0.307796 1.741911 1.046992 -0.165283 -0.437020 -0.304928 -0.180301 0.538536
adverse 0.587610 0.450377 0.891759 0.029793 0.160829 -0.365590 1.177319 0.196077 -0.841049 -0.265975 1.067597 -0.306281 0.119943 0.104903 -0.624363 -0.931241 0.588385 0.139736 -0.365608 0.508173 -0.668450 -0.563869 0.187202 -0.240522 -0.082137 0.754446 -0.132022 0.516602 -0.528858 -0.075996 0.495723 0.795637 0.389626 -0.290686 0.376932 0.213422 -0.182031 -0.346598 1.005561 0.502361 0.097758 0.750570 -0.242714 1.101936 0.805702 0.862317 -0.222082 0.828294 -1.340842 -0.163638
alcohol 0.239148 -0.277491 0.336324 -0.676120 -0.005602 -0.761911 0.017144 0.982905 -0.585260 0.421577 0.413624 -0.703489 0.944156 0.036221 -0.684913 0.151925 0.123822 0.826688 0.718519 0.663262 0.043444 -0.589720 -0.459146 -0.571119 -1.010272 -0.526385 -0.061085 0.562425 0.581703 0.143986 -0.270364 0.558990 -0.455319 0.361847 -0.247082 0.038593 -0.326288 0.097791 0.433679 1.328446 -0.209678 -0.213825 -0.035750 0.421753 -0.553885 0.115400 -0.202592 0.593848 0.317654 -1.549417
any -0.191771 0.267438 0.355079 0.172650 0.414615 -0.100993 -0.190806 0.512663 -0.896310 0.854270 -0.037748 0.565884 0.723787 0.085164 -0.138229 -0.399639 -0.020394 -0.202370 0.587076 0.455800 -0.841972 -0.462736 0.564082 0.152240 0.157388 0.505200 0.420624 -0.268921 0.148779 0.893081 0.090938 0.226120 0.364710 -0.081179 0.001655 -0.539168 0.275214 0.117923 0.657809 -0.230641 0.061837 -0.100794 0.242011 0.727398 0.968504 -0.042329 -0.266591 0.710258 -0.466315 -0.833049
carbamazepine -0.304342 0.427965 -0.029969 0.329847 -0.615654 -1.397413 -0.553536 0.587817 -0.455015 1.065163 0.631843 -0.261939 0.221956 0.400694 -0.615296 -0.156985 -0.539239 0.594800 0.706201 0.721590 -0.211837 -0.769143 -0.134831 0.451754 -0.226600 0.596066 0.334333 0.021513 0.085248 0.079146 0.218111 -0.392109 -0.155823 -0.743475 -0.192676 0.052265 0.381927 0.964770 1.284031 0.213624 0.102426 0.089658 -0.396110 -0.006507 -0.029381 -0.793692 0.115091 -0.516197 -0.278035 -0.792603
pharmacokinetic 0.399420 0.814548 0.006237 -0.141337 -0.059363 -0.831124 -0.197268 0.507671 -1.224398 0.600821 0.039377 0.497210 -0.523569 0.291460 0.248899 -0.014737 0.407143 -0.142443 1.294400 0.623516 0.207395 -0.359690 -0.093023 1.335434 0.372091 0.657725 -0.137579 0.534607 0.055297 0.754499 0.148173 0.243717 0.011547 -0.836542 -0.038081 -0.342976 -0.116066 -0.465090 1.179879 0.060717 0.571627 0.615395 0.732263 0.247241 0.638345 0.096454 -0.618978 0.489904 -0.710277 0.094135
data -0.776193 0.184187 0.204395 0.592731 0.468715 0.066459 0.481774 -0.265898 -0.840586 0.407178 -0.935087 0.804490 -0.245590 0.321726 -0.874025 0.096192 0.677485 -0.106420 0.655324 -0.207411 -0.087111 -0.738582 -0.254416 -0.494741 0.261759 1.231505 -0.065456 0.724814 -0.425959 0.125894 0.981443 1.023234 -0.546083 -0.659191 -0.748492 -0.184788 -1.131946 -0.743337 1.371947 -0.382741 -0.012451 -0.043445 0.424605 -0.484366 0.267308 0.324375 -1.226425 -0.113586 0.220815 0.644332
prothrombin 0.514526 0.882111 -0.864734 0.478548 0.044341 -0.299432 0.680214 0.946621 -0.978606 0.079186 -0.040389 -0.656248 0.840039 -1.319360 -1.097852 -0.156646 0.918061 0.836242 0.123632 0.919105 -0.532444 -0.922120 -0.185545 0.174966 -0.269069 1.243676 -0.300020 -0.322261 -1.424242 0.301572 -0.698626 0.524956 -0.846979 0.067876 0.184839 -0.365004 -0.092618 0.335593 0.343911 0.879228 0.513797 0.258770 -1.009285 1.189051 -0.411903 -0.076854 -0.989979 0.241452 0.366600 -0.446833
coadministered 0.181482 -0.923059 -0.130163 0.833502 0.131811 -0.152488 -0.182836 0.764647 -0.617915 0.898649 -0.144902 -0.714645 -0.700761 0.557958 -0.412156 -0.514239 0.042526 -0.085696 0.446707 1.030163 -0.329925 -0.769442 -0.407282 0.050244 0.150512 -0.881158 0.580847 0.238985 -0.278916 0.132316 0.834883 0.582029 -1.225666 -1.041880 0.452756 -0.035121 0.372290 0.753299 0.193034 0.769229 0.961018 0.945969 0.465623 1.207129 -0.372215 0.598899 -0.545616 0.286253 0.474932 0.488562
although 0.074365 -0.077371 0.385476 0.345878 0.327099 -0.190578 0.213576 0.694331 -0.943605 -0.296401 -0.604192 -0.099364 -0.201945 0.107725 -0.433866 0.005582 0.123689 0.388861 0.010614 0.468146 -0.018303 -0.302184 0.435514 0.021235 -0.049522 0.244724 0.903713 0.143789 0.150182 0.463724 0.689624 0.186630 -0.800373 -0.280788 -0.410132 -0.177362 -0.069406 -0.258860 1.029266 0.009012 0.770916 0.015099 0.054547 -0.063879 0.556730 -0.897475 -0.057876 0.446348 -0.517135 -0.653503
one -0.182844 0.217139 0.144160 0.303290 0.404573 0.408628 0.253209 0.540379 -0.741104 0.977168 -0.679404 0.296939 0.476084 0.085113 -0.462469 -0.633113 0.051610 0.152839 0.789538 1.091399 -0.730083 0.399734 0.587777 -0.538053 -0.132118 0.151735 -0.578372 0.039430 0.794537 -0.069884 0.917902 0.268283 -0.591413 -0.189325 -0.067348 0.097538 -0.128814 0.485195 0.236047 0.924383 0.477291 0.392109 -0.933670 -0.180322 0.824981 -0.116552 0.401517 -0.155454 0.619960 -0.292833
had 0.624875 0.861918 0.132495 -0.189822 -1.475647 -0.407636 -0.029671 0.483452 -0.289746 0.102771 -0.253461 -0.974401 0.335405 0.569110 -1.153076 0.964821 0.632580 0.348055 1.007695 0.581265 0.271152 -0.512434 -0.247583 0.348076 0.414044 0.383617 1.075048 0.510865 0.537903 0.103128 0.849224 0.958666 0.265842 1.120848 0.351481 -0.150910 -1.097116 0.604688 0.245634 0.325810 -0.258434 -0.347789 0.709473 0.798789 0.763054 -0.028237 -0.418837 -0.680049 -0.714871 0.572493
adjustment 0.239528 0.579139 1.102007 1.890592 0.069734 0.808350 0.514935 -0.031303 -1.256826 0.856046 -0.131138 -1.041823 0.423577 -0.114936 -0.226418 0.409710 -0.474687 0.192462 0.421239 0.503726 -1.522077 -0.775401 -0.998238 0.427413 0.284906 0.781377 -1.083237 -0.683171 -0.033782 1.665224 0.678186 -0.269774 -0.170442 -0.509705 -0.428827 0.200287 -0.578565 0.217600 0.480622 1.122547 0.207743 0.299400 0.421946 0.019073 0.667560 -0.330892 -0.297359 -0.235290 0.418833 0.885137
tricyclic__antidepressant -0.049164 -0.195487 0.450650 0.683858 -0.313935 -1.073393 0.401882 0.997598 -0.494790 0.470389 0.738408 -0.455700 0.195637 1.042064 -1.017825 0.612513 -0.612789 -0.086468 -0.111289 0.852071 -1.479790 -0.957534 -0.714134 -0.646827 -0.890616 0.829254 0.473574 0.276249 -0.015541 -0.333395 -0.809797 -0.233653 0.162687 0.261188 -0.042919 0.033134 0.050223 0.102314 0.475908 0.887480 0.221104 0.331436 -0.375434 0.139799 0.525698 0.018129 -0.530087 0.134513 0.142663 -0.301666
associated 0.228906 0.072692 0.366372 0.004146 0.524899 0.209120 0.314872 0.086677 -0.479879 0.563571 -0.082674 -0.580126 0.632685 0.480323 -0.780748 -0.458571 -0.038312 1.248321 -0.485384 0.593327 -0.115788 0.174329 -0.273676 -0.339697 -0.588769 0.523278 0.666699 0.496392 0.256424 -0.085784 -0.055758 -0.659770 -1.189417 0.271021 -0.663395 0.433602 -0.129983 0.152068 -0.185475 0.428378 -0.362102 0.617420 0.378864 1.222270 -0.097936 -0.090311 -0.173917 -0.292638 -0.485486 0.382854
treated -0.491675 0.382362 -0.230568 0.518837 -0.223935 0.429061 0.283276 -0.214695 -0.385797 0.459007 -0.339721 -0.560198 1.348508 0.716580 -0.731958 -1.029958 0.035209 -0.139390 -0.289712 0.272233 -0.113511 -0.134052 0.035988 0.128512 -0.334722 0.416309 0.348148 0.461466 -0.001380 -0.088011 0.332227 1.025237 -0.541475 -1.030880 -0.285710 0.124073 0.221409 0.757978 -0.681979 0.512403 0.802458 0.533213 0.475825 0.297339 -0.101061 1.253407 0.156668 0.349926 -0.289019 0.390783
20 -0.197814 0.763787 0.081076 0.417671 -0.152987 -0.882134 0.056183 0.555440 -0.508965 0.825428 -0.190950 -1.016923 -0.617458 -0.337813 -0.451494 -0.361084 0.061537 0.035530 -0.228116 0.510176 -0.165243 0.579012 -0.193693 -0.303056 0.254921 -0.033606 0.800889 0.063213 1.065394 0.238197 0.075066 1.015436 -0.279070 -0.208168 0.072618 0.344259 -0.933511 -0.376522 -0.334701 0.285264 0.780047 -0.281032 0.811390 0.972395 0.642616 0.705795 0.311923 0.062394 0.702405 -0.037228
cyclosporine 0.275845 -0.044673 0.244862 1.082468 -0.699375 0.042921 0.176929 0.448137 -0.341598 1.609244 0.274461 0.154188 0.302976 0.430456 -0.350495 -0.339294 0.033548 -0.108781 0.262057 1.410609 -0.726539 -0.968076 -0.127658 -0.642979 0.035720 0.806819 -0.608993 -0.099638 -0.213680 0.046412 0.014856 -0.889369 -1.124380 -0.605761 0.467357 0.104312 -0.073469 -0.007825 0.341567 -0.171081 -0.167014 1.063541 0.797873 0.470444 0.099283 -0.075897 0.408834 -0.313261 -0.523880 0.580889
aspirin -0.128529 0.382916 -0.476689 -0.106829 0.064036 -0.643120 -0.076184 0.087708 -1.771519 0.939559 0.714588 0.357171 0.171143 -1.082196 -0.348413 0.541375 0.452736 0.486320 0.193693 -0.017083 -0.266040 -0.209802 0.151926 -0.759367 0.598125 0.652744 0.409126 0.899026 0.501296 -0.345824 -0.717785 -0.265578 0.107501 -0.907740 -0.763494 0.019270 -1.087702 0.261305 0.263764 0.651755 0.360821 0.200627 0.623622 1.247741 -0.042029 -0.204355 -0.129841 0.050581 0.297892 -0.949420
glucose 0.204191 0.306208 -0.463500 0.222671 -0.207194 -0.062480 -0.309537 1.340250 -0.575296 1.373272 0.167887 -1.144508 0.511102 0.436296 0.013609 1.077927 -0.409944 -0.338524 -0.345837 0.363830 -0.251368 -0.490893 1.178732 0.304068 -0.677309 0.265570 -1.491323 -0.337935 -1.621666 -0.405038 0.351240 1.149741 -0.364778 -0.260972 -0.644096 -0.304012 -1.192774 0.516870 0.746519 0.646154 -0.348565 -0.373130 1.168978 0.779795 0.035214 0.247104 -0.886525 -0.215422 -0.579640 -0.146507
therapeutic 0.296756 -0.112286 0.106805 0.342575 -1.239967 -0.117584 0.485399 0.162780 -0.628264 1.164540 0.776423 -0.233316 -0.397265 -0.133150 -0.567307 0.027107 -0.269647 0.002123 0.502698 0.066880 -1.431802 -0.857359 0.504101 -0.706448 0.316414 0.634665 0.554177 -0.019130 -0.400909 -0.608204 0.371035 0.355416 0.178964 -0.128540 0.266724 -0.424216 0.327965 -0.603380 0.133687 0.413686 0.393582 0.242913 0.216299 0.506132 0.689149 0.287671 0.033198 -0.004050 -0.468016 0.510129
protein -0.004520 -0.325681 -0.142557 1.224757 -1.258042 0.306288 -0.544621 0.321163 -1.006322 0.243267 -0.363955 0.152500 -0.154487 -0.995763 -0.553499 -0.007842 0.615909 0.275484 1.426173 0.826430 -0.584954 -0.279434 -0.317473 0.777069 0.378233 0.617606 0.414718 0.259255 -0.455400 -0.187117 0.529625 -0.369342 -0.803962 -0.258245 -1.696378 -0.003698 -0.286113 -0.636887 -0.301498 1.422559 0.575508 0.497738 0.067210 -0.076513 -0.900907 1.239750 -0.308138 -0.868105 -0.203145 -0.610087
mean 0.940036 0.962054 -0.000569 0.663045 0.039354 -0.518307 -0.218256 0.896906 0.155609 0.971074 -0.110049 -0.756590 -1.238146 -0.316271 -0.164713 -0.590261 0.401372 0.014367 0.933899 0.496319 0.822330 0.378818 -0.720546 -0.196361 0.390909 0.549412 0.290401 0.211699 0.501269 -0.087694 0.500812 0.416547 -0.455559 0.170034 -0.051699 0.965435 -0.332260 -0.331582 -0.108103 0.528337 1.005455 0.429036 -0.067937 1.130186 0.768919 -0.116431 -0.351175 0.193862 -0.411682 -0.835830
possible -0.358831 -0.324424 0.617858 -0.712045 -0.308524 -0.689861 0.111576 0.189989 -0.446557 -0.264307 -0.163781 -0.085225 0.040890 0.199492 -0.196417 -0.199663 0.197908 0.204361 0.272229 -0.101533 -0.164777 -1.014933 0.676806 0.085610 -0.189187 0.558421 -0.556801 0.296459 -0.230394 0.455589 0.550065 0.608185 -1.161220 -0.371630 -0.092016 0.580359 0.028708 -0.455350 1.532428 0.566866 -0.028257 -0.047339 -0.172717 1.000243 0.393073 0.247396 0.861052 -0.259950 0.314809 0.750863
diuretic -0.607169 0.345336 0.597519 -0.125040 0.422249 -0.234918 0.088175 0.163046 -1.547366 -0.184667 0.659724 -0.163026 0.150771 0.283128 -0.447250 0.020749 -0.738508 -0.867110 1.742800 0.455705 -0.358536 -1.271737 0.851023 -0.153806 0.097637 1.224072 -0.309724 -0.555658 1.055828 -0.310725 -0.570427 0.038929 -0.594336 -0.099070 0.811798 0.519252 -0.097381 0.140312 0.142813 0.020791 -0.024403 1.580798 -0.105134 1.235502 -0.503386 -0.337101 -0.722797 0.097326 -0.003910 0.298768
exposure 0.006942 -0.350824 0.766026 0.665576 -0.089506 -0.294558 0.270355 0.128202 -0.223398 0.807396 0.500384 -0.693757 -0.531671 1.011092 -0.220254 0.191358 0.983526 -0.328873 -0.060743 0.503194 -0.185111 0.617811 -0.447386 0.477749 -0.003045 0.023086 -0.428597 0.418494 -0.323160 0.296537 0.680972 1.368589 -0.748260 0.222983 -0.025859 0.518153 -0.060063 -0.130461 0.955579 0.187920 0.309276 -0.148766 0.207813 -0.120777 0.181393 0.319703 -0.005399 -0.008151 -0.523059 0.392107
before -0.126956 -0.228325 -0.588129 0.185858 0.114266 0.130563 -0.185454 0.423681 0.149847 0.449120 -0.089857 0.162727 1.508284 0.446460 0.037726 -0.022985 -0.814488 -0.032206 0.719174 0.445791 -0.737362 0.145165 0.194767 0.714040 -0.272700 0.378280 -0.821857 0.069465 0.643461 0.883793 -0.439455 0.327604 -1.386643 0.104658 -0.226833 0.709359 -0.191529 0.743692 0.612899 1.176606 1.432339 -1.083588 0.411333 0.460060 0.775043 0.150585 -0.860469 0.309758 0.467095 -0.594924
reduction 0.024627 0.291167 1.032724 1.293431 0.092016 0.423309 -0.106196 0.901177 -1.086781 0.901203 -0.256824 -0.866229 -0.756176 0.439175 0.537128 0.636008 -0.026673 -0.496034 -0.046592 0.548546 0.198815 0.287120 0.149143 0.142314 0.345620 0.450953 -0.547572 -0.590188 0.393558 0.350895 0.990102 -0.093466 -0.370548 0.133621 -0.122625 0.654837 0.357307 0.350216 0.340043 0.659237 0.064319 0.751428 0.372196 1.183923 0.523732 0.283984 0.322750 0.606595 0.027257 -0.462727
resulted 0.699447 0.745164 0.211082 0.615326 0.648179 0.170762 -0.188669 0.304733 -0.282027 0.813538 -0.792650 0.354471 -0.562805 0.158483 -0.523006 0.909853 0.177127 -0.494506 0.056185 1.094226 0.228173 -0.283375 -0.669040 -0.411599 0.319010 0.283627 0.681884 0.575073 -0.165237 -0.346999 -0.219453 0.213833 -0.848012 -0.506223 0.039746 1.477882 0.327232 0.851615 0.524727 0.351261 0.520798 -0.226233 0.841158 0.459143 0.755695 -0.022643 0.223490 -0.251318 -0.077407 -0.685038
erythromycin 0.185216 0.105743 1.130769 0.457732 -0.232399 -0.231904 0.122823 0.062174 0.005588 1.418166 -0.156056 0.905682 -0.177383 0.083263 -0.849321 0.485904 0.168180 0.504118 0.867735 1.164538 -0.521787 -0.749647 -0.154343 -0.212773 -0.467478 -0.344384 -0.044560 -0.340456 -0.657598 -0.654112 0.167435 0.219737 -0.901850 -0.449162 0.928572 0.111148 -0.071387 0.526852 0.973256 0.362725 0.173844 0.392435 0.694912 0.433672 -0.102181 0.051452 -0.401855 -0.511920 -0.600475 -0.038381
since -0.482273 0.581560 0.541216 0.003632 0.233378 0.463209 0.294603 -0.070838 -0.925855 0.370597 0.819993 -0.556585 0.610480 -0.384402 -0.433111 0.132387 0.273387 1.063398 -0.469173 -0.418214 -0.367605 -0.319770 0.346635 0.802356 -0.139286 -0.708078 0.322692 0.556517 -0.005373 -0.202190 0.054060 -0.108629 -0.383208 -0.688980 -0.684623 -0.034758 -0.168725 -0.368523 0.924131 0.486165 1.043695 -0.028355 0.297784 0.929854 0.149524 0.008561 -0.011032 -1.056209 -0.274816 -0.521673
co-administration -0.430542 0.189034 0.021648 0.785655 -0.106762 0.245398 -0.370972 -0.018393 -0.971082 1.112503 0.034368 -0.458251 -0.183463 -0.005427 -0.092455 -0.384597 0.327448 0.105395 1.280299 1.804748 0.238142 -0.713666 -0.941235 -0.156739 0.190387 -0.053213 0.223559 0.525696 0.095467 -0.270330 0.176709 0.528118 -0.445801 -2.050435 -0.172032 0.339030 1.151734 0.566440 0.052072 0.275914 -0.249076 0.022867 0.243178 0.397447 -0.484713 -0.121701 -0.535862 1.156240 0.010782 0.165533
substrate -0.173489 -0.273188 0.200811 1.107291 0.133697 -0.915303 -0.614764 -0.430339 -0.568653 0.653970 0.511174 0.235055 -0.368870 -0.172945 -1.030597 0.089886 0.601920 -0.622782 -0.037222 0.825590 -0.306389 -0.511824 -0.284050 -0.232601 -0.713041 0.166339 -0.640396 -0.822295 -0.563432 -0.029721 1.319912 0.262836 -0.577391 -0.945291 -0.548586 -0.187446 -0.467119 0.469204 0.283587 0.666402 0.656396 0.074429 0.476732 0.554443 1.092315 -0.007179 -0.127315 -0.531214 0.204873 -0.126012
inhibition -0.524062 0.044418 1.138838 0.268304 0.437879 -0.275386 0.196528 -0.726150 -0.222236 0.768988 0.741442 -0.873086 -0.089143 -0.204614 -0.996149 1.414452 0.854753 -0.661641 0.614306 1.265116 0.554753 0.121517 -0.457019 1.037554 -0.280562 0.851744 0.422533 -0.869671 0.319122 0.533946 0.147788 -0.112917 -1.018456 -0.033827 -1.096198 1.116669 0.314305 -0.255907 0.468483 0.312840 -0.060293 0.309295 0.271804 0.063225 0.651042 0.251054 -0.742244 0.298409 -1.010410 -0.828311
report 0.528876 0.883790 0.197350 -0.411731 1.238048 0.084993 0.246719 1.336733 -0.672584 0.581421 0.010111 0.075957 0.596806 0.017062 -0.985732 -0.532563 0.666564 0.272342 0.250992 0.057344 -0.148931 -0.916126 -0.475035 -1.046146 -0.006344 -0.382334 -0.079742 0.651702 -0.615134 -0.128996 0.374944 0.111812 -1.304840 -0.356532 -0.719084 0.837730 -0.549823 0.175737 0.924798 0.591458 0.208096 0.066721 -0.444316 0.381858 1.525722 0.100226 -0.633785 0.119921 -0.208064 0.676013
system -0.118657 -0.189415 0.049733 -0.267292 0.805480 -0.087085 0.389744 -0.513350 -1.337525 0.879470 0.966471 -0.463917 -0.346027 0.096720 -0.807079 -0.487720 -0.588133 -0.432454 0.360411 1.420434 -0.271303 -0.664072 0.006610 0.822937 -0.511941 0.344156 0.362135 -0.588233 -0.649237 -0.423295 0.757312 -0.175316 -0.646489 0.041045 -0.292084 0.245938 -0.147641 -1.267945 0.809069 0.377412 -0.279875 -0.288757 0.085947 0.023664 0.339109 0.818832 -0.099630 -0.220402 0.372885 -0.783256
two -0.041583 0.587494 -0.448404 0.176562 0.263741 -0.138770 0.367359 0.156794 -0.723876 1.250885 -0.359364 0.154069 0.206496 0.153128 -0.177473 -0.611679 0.050292 -0.021953 0.241085 0.335505 -0.560274 0.190272 0.649230 -0.256995 0.129442 -0.080176 0.126858 0.291283 0.365073 0.436748 1.183081 -0.083422 -0.172345 -0.321596 0.101352 -0.505885 -0.818206 -0.105980 0.629012 0.538779 0.730263 0.014835 -0.416921 0.213740 0.575429 0.379600 0.859671 -0.027957 -0.051931 -0.323097
antacid -0.745476 0.625768 -0.595510 0.547585 -0.917639 0.648343 -0.445310 0.170106 -1.246484 0.959759 -0.714961 0.614342 -0.332660 0.753806 0.004948 0.027914 0.865302 0.732014 0.460469 0.753891 -1.122940 -0.676291 0.023633 -0.084195 0.235165 -0.100153 0.146520 0.496668 0.402818 0.248672 -0.681601 0.168831 0.151090 -0.215662 0.094617 0.047434 -1.026305 0.980114 0.463464 0.313755 0.268774 -0.874661 0.001363 1.874935 -1.095799 -0.542676 -0.725417 0.356027 -0.077360 -0.703745
metabolite -0.613315 0.679734 -0.504799 0.778457 -0.456006 0.599534 -0.445469 0.174124 0.310104 1.374610 0.092121 -1.044873 -1.123994 0.326633 -2.043356 -0.514847 1.371696 0.143016 -0.328070 0.382831 -1.838070 -0.130988 0.496974 1.163347 -0.115357 -0.415364 -0.037822 0.722250 0.378658 0.514006 0.715612 0.420044 -0.253405 -0.163490 -0.095908 0.142641 -0.043533 0.487437 0.244060 0.245282 0.214385 0.247918 -0.839431 0.336978 0.180588 -0.604636 0.039630 -0.762382 -1.061069 -0.225047
normal 0.534411 0.770039 -0.315668 -0.500922 -0.426673 0.419767 0.496040 -0.195792 -0.885222 0.565895 -0.131728 -0.213966 -0.008198 0.598574 -0.078913 1.460433 0.971596 -0.374436 0.314556 1.147083 -0.264558 0.558482 0.657365 0.183371 0.090485 1.692873 -0.457201 0.488505 1.321340 0.795750 -0.380174 0.322463 -0.534431 -0.305984 -0.529437 0.066483 -0.242627 0.304129 0.562940 0.918281 0.152148 0.600041 -0.902646 0.524613 0.557209 0.071621 -0.429287 -0.871219 0.245355 -0.032075
occur -0.165022 0.171429 0.177892 0.650319 0.493429 -0.087122 0.208853 0.288958 -0.212169 0.462392 0.123346 -0.858633 0.318079 0.232818 0.359681 0.126973 -0.891650 -0.270059 0.385448 -0.296836 -0.795041 -0.604889 0.148256 -0.233848 -0.276507 0.067088 0.776203 0.346416 -0.512630 -0.198011 0.287996 -0.060121 -0.609379 -0.627003 -0.978228 0.396325 0.140390 0.441083 0.906993 0.181813 0.123543 0.431610 0.247788 1.117556 0.751813 1.003841 -1.151282 0.591264 0.036707 -0.947107
rifampin -0.165985 0.512063 -0.415023 0.717713 0.420224 -1.487662 -0.567197 0.731849 -1.369734 1.307542 -0.374865 0.265548 0.168473 -0.155583 -0.498665 0.276170 -0.032626 0.467675 0.397176 0.344910 -0.021712 -0.569476 -0.264940 -0.289256 -0.960094 0.297520 -0.527711 0.370314 0.025921 0.199283 0.757308 -0.113483 -0.264699 -0.283351 0.350571 0.607983 0.111515 0.748842 0.490344 0.269420 0.138025 0.048065 -0.095804 0.437085 -0.233050 -0.447258 -0.248183 0.067266 -0.133246 -0.085064
cmax 0.684746 1.088972 0.399803 1.053975 -0.566587 -0.753311 0.180454 -0.443371 0.100859 1.289830 0.242864 -0.505300 -1.464519 0.492846 -0.786808 0.149345 1.510236 -0.146338 0.221732 0.817028 -0.275810 0.251098 -1.143656 0.084961 0.041317 0.773647 -0.645019 0.979701 -0.052222 0.980320 0.371022 0.916434 -0.489799 -0.164976 0.807355 0.669337 -0.797810 0.176722 -0.240826 0.487906 1.210564 -0.084333 -0.052658 0.758758 0.152377 -0.253017 -0.678562 -0.322449 -0.662753 -0.107515
additive 0.649478 -0.785595 0.983168 -1.196526 1.263841 -0.573850 -0.271740 -0.164500 -0.674284 0.946290 0.410497 -1.167057 0.196602 1.361346 -1.024282 0.869525 -0.065358 -0.062261 0.204016 -0.219439 0.008806 -0.612003 -0.141087 -0.383801 -0.915811 0.094850 -0.312932 0.300177 -0.338524 0.437207 -0.071585 0.897373 -1.000676 -0.622659 0.111044 0.177543 -0.285721 0.576427 2.114310 1.220587 -0.340900 0.553003 0.438797 0.412737 -0.463419 1.117650 0.199848 -0.118282 0.378873 -1.144421
5 -0.564165 0.971691 -0.558358 1.128164 -0.596327 -0.483944 -0.435681 0.149365 -0.540881 0.472455 -0.063569 -0.933636 -0.789810 -0.447729 -1.064453 -0.054760 -0.396022 0.554949 0.395651 0.093186 -0.186680 0.605301 -0.270505 0.361078 -0.143931 0.497759 0.442348 0.339379 0.635741 0.705972 -0.213284 1.175979 0.092611 -0.157619 0.440788 0.244359 -0.620521 -0.329892 0.753448 0.428465 0.357478 -0.288192 -0.432726 0.589789 0.215872 0.896546 0.389767 0.299948 0.625114 0.290602
their -0.312189 -0.681361 0.636054 0.216747 -0.164216 -0.052036 0.046576 0.927628 -0.405762 0.615753 0.095586 -0.111807 0.495734 -0.533163 0.268853 0.217135 -0.260847 -0.006369 0.342314 0.189348 -0.581616 -0.857646 -0.061019 0.133721 -0.111374 0.266751 -0.680413 0.003491 -0.852314 -0.287277 0.570857 0.758179 -1.042398 1.122429 -0.724196 -0.558913 -0.817848 -0.624931 0.371842 0.270032 0.390049 -0.149360 0.408405 0.247224 0.327524 -0.206460 0.417404 -0.294617 -0.368791 0.133213
cell -0.238169 0.080054 0.020595 0.624866 -0.442601 0.886851 1.540077 0.434654 -1.177596 0.155826 0.521292 -0.141057 -0.600968 0.684451 -0.793984 0.016281 0.768344 0.392521 1.460665 0.299694 0.474967 0.414685 0.966845 0.964997 0.479235 0.462661 -0.836351 -0.257410 -0.377265 -0.461371 -0.326907 0.166390 -1.017829 1.083972 -0.510906 -0.136954 -0.354204 -0.303514 -0.398578 0.366025 -0.327950 0.509605 -0.557606 0.001364 0.587591 1.164369 -0.399651 -1.444305 -0.682474 -1.593211
studied 0.403073 0.943835 0.709291 -0.309582 -0.042845 -0.116096 -0.185329 -0.892141 -0.328780 0.521706 -0.346518 -0.934137 0.045389 0.014287 -1.370661 -0.392583 0.011884 0.501023 0.367175 0.727119 0.575359 0.343116 0.556892 -0.229518 -0.500712 0.650538 1.060107 0.389605 -0.085305 -0.045615 1.111144 -0.326960 -1.145609 -0.211905 -0.362197 -0.333417 -0.299359 -0.163650 0.410439 1.018438 0.766241 -0.020250 1.058680 0.024028 0.168370 -0.650678 0.190363 0.523802 -0.306420 -0.486062
corticosteroid -0.652427 0.405021 -0.849979 0.818099 0.199731 -0.409094 0.244644 0.587861 -0.676778 0.506587 0.523613 0.250637 0.347502 -0.153484 0.057077 -0.043250 -0.464724 -1.142307 0.154828 0.900397 -1.089657 -1.281506 0.141913 -0.473011 -0.058213 0.587745 -0.186410 -0.278218 -0.038022 -0.259292 0.278142 -1.053190 -0.306669 0.249743 0.015006 1.165301 -0.165193 0.200786 0.593688 -0.102765 -0.062346 -0.065300 0.444091 1.327024 -0.102792 0.174305 0.029631 -0.203768 -0.650533 0.241671
binding -0.037279 -0.075803 -0.615238 1.075063 -0.916970 -0.151739 -0.166370 0.626127 -1.343512 -0.023180 -0.445998 -0.094466 -0.337240 -1.247790 -0.054882 0.327051 0.501868 -0.162438 1.359454 0.809681 -0.710037 -0.352867 -0.107551 0.304473 0.486470 0.288575 0.002994 -0.043910 -0.867733 0.124946 0.367210 -0.123396 0.112757 -0.482916 -1.648749 0.156466 -0.401913 -0.422527 0.230549 1.387927 0.714895 0.576939 -0.083427 0.095540 -0.445908 0.917167 0.392480 -1.033278 -0.923097 -0.284498
taken -0.231890 -0.285255 -0.599650 0.433385 0.090258 0.276976 -0.562371 -1.053554 -0.855242 1.347292 0.175795 -0.785989 0.221167 1.356750 -0.158331 -0.301422 -0.542311 -0.142386 0.765883 0.948106 -0.947122 -0.356202 0.289792 0.446852 0.620475 0.324531 0.297828 1.206883 -0.487118 0.551840 0.390212 0.013312 -0.457787 0.237229 0.496296 -0.229796 0.367857 0.475398 -0.350990 0.562000 0.963863 -0.515421 0.982518 1.165964 -0.342009 -0.179136 -0.326974 0.387571 0.389648 -0.473793
more 0.058232 -0.114359 0.124559 0.488275 -0.349156 0.333504 1.193520 0.810498 -0.439768 0.514835 0.212934 0.541599 0.190400 0.161158 -0.376902 0.269491 -0.330207 0.403586 0.218053 0.208577 -0.343844 -0.147521 0.491634 -0.310793 -0.771249 -0.075355 0.281889 -0.215381 0.194994 -0.325225 1.089288 0.327611 -1.399021 -0.002339 0.188020 0.398583 -0.648580 0.008118 0.064158 -0.233070 0.070890 0.285726 -0.423047 0.292602 0.727191 0.493099 -0.152415 0.614818 -0.141879 -0.983581
tablet 0.526265 0.538098 0.119948 0.634051 -0.243877 -0.056266 0.164007 -0.187020 -0.673486 1.500078 -0.018459 -0.540762 0.036775 0.433375 0.056334 0.536860 -0.444799 0.283886 1.206924 0.463031 -0.488825 -0.314171 0.326173 0.028275 -1.203967 0.027791 -0.197459 1.131528 -0.319393 0.604469 0.120623 0.194444 0.033495 -0.405303 -0.030630 -0.239229 0.307280 0.153985 -0.043562 0.634238 0.229999 -0.710464 0.604871 0.433679 -0.479779 0.728478 -0.586298 0.257942 -0.843321 0.913536
higher -0.782820 0.182299 0.903445 0.765762 -0.194172 -0.289176 0.223762 0.213576 0.261300 1.158013 0.130690 -0.830504 -0.170303 0.230344 0.687455 0.468515 0.081908 0.908228 -0.029063 0.741064 0.019480 -0.754566 -0.261052 0.031412 -0.045000 0.485963 0.783981 -0.127519 0.579347 -0.645553 0.187519 2.020608 -0.641147 -0.334251 -0.483552 -0.092122 -0.546643 0.093499 0.228358 0.121807 0.170229 0.587495 -0.156081 0.828527 0.354055 0.278958 -0.705700 0.760515 0.129830 -0.152326
trial -0.024681 1.242069 0.427143 -0.180440 0.520341 -0.361446 1.627712 0.366102 -0.735107 0.345378 -1.039254 0.187192 -0.346190 0.522595 -0.362851 0.201112 -0.029052 -0.273390 0.056595 0.393513 -0.465808 -0.097948 -0.359154 -0.354768 0.466577 0.614181 -0.060960 0.812614 -0.015067 0.071195 0.068017 0.454790 -0.440936 -0.824739 0.044479 -0.237851 -0.157022 0.796316 0.356635 0.868966 0.467099 -0.015771 0.409108 -0.091639 0.574677 0.191889 -1.031318 0.895507 -0.818729 0.582883
3 0.324608 1.336903 -1.173107 0.203067 -0.604020 -0.598963 -0.035270 -0.570447 -0.768296 0.789323 -0.010696 -0.330098 -1.049626 -0.323080 -0.740316 -0.441000 -0.223116 0.652826 -0.282340 0.290184 -0.366486 -0.162218 -0.178757 -0.239425 -0.710703 1.076118 -0.219746 0.357930 0.196198 0.114246 0.603611 1.386968 0.090282 0.119180 -0.260799 -0.136400 -0.348213 0.041815 0.622688 0.471412 0.574091 -0.685135 -0.267648 0.227331 0.004963 0.510012 -0.016572 0.262929 0.939099 -0.170082
using -0.764729 0.191217 -0.186904 0.600902 -0.076974 0.191851 0.292422 0.001846 -0.568620 0.542192 0.052455 -0.678466 0.219321 0.955970 -0.003203 -0.530561 -0.305141 0.368884 0.674260 -0.654976 0.550266 -0.640684 -0.497741 -0.271740 0.042957 -0.001541 -0.647113 0.151269 -0.247240 0.476501 0.679435 0.944082 0.436085 -0.104384 -0.762665 -1.214737 0.295833 -0.173834 0.292727 0.330696 0.245586 0.204508 1.217345 0.570488 1.085716 -0.646753 -0.275739 1.025622 0.560139 -1.688133
